svm_type nu_svc
kernel_type polynomial
degree 2.0
gamma 0.05263157894736842
coef0 1.0
nr_class 7
total_sv 698
Misclassification Error = 2.208% (51/2310)
rho -1.2225840805698553 2.7380472866950245 1.708230440700758 2.8161013478990773 -0.81871539175853 2.6229633173684737 2.544013344378225 4.967680173898512 2.483069456838463 -0.6415883229907308 2.144223010097563 -5.878072223727972 3.7133827603647473 -1.1094261396270142 0.12290144897406763 1.8478102441733824 -2.4593032637194483 2.8301655878695113 -1.1074436278110131 -0.368228739793807 1.2083800423305295
label 6 5 4 3 2 1 0
nr_sv 65 93 134 121 127 52 106
SV
0.0 0.0 0.0 1.1534277099251577E-7 0.0 1.142272265005E-7 0:19.0 1:184.0 2:9.0 3:0.0 4:0.0 5:0.5555555 6:0.34426498 7:0.8333333 8:0.62360954 9:14.222222 10:12.333333 11:11.0 12:19.333334 13:-5.6666665 14:-9.666667 15:15.333333 16:19.333334 17:0.43115196 18:1.9378915 
9.327425159881107E-8 0.0 0.0 0.0 0.0 0.0 0:30.0 1:251.0 2:9.0 3:0.0 4:0.0 5:2.444444 6:1.8816857 7:8.0 8:1.6055425 9:20.666666 10:21.444445 11:17.777779 12:22.777779 13:2.3333333 14:-8.666667 15:6.3333335 16:22.777779 17:0.23141664 18:1.2870604 
0.0 1.6409821020346302E-7 1.8986323337931306E-7 1.1534277099251577E-7 0.0 1.142272265005E-7 0:34.0 1:164.0 2:9.0 3:0.0 4:0.0 5:0.888889 6:0.40368673 7:1.2777778 8:0.49065349 9:11.333333 10:9.222222 11:10.333334 12:14.444445 13:-6.3333335 14:-3.0 15:9.333333 16:14.444445 17:0.367923 18:2.291118 
0.0 0.0 3.649141900545815E-8 1.1534277099251577E-7 0.0 5.3412014934189574E-8 0:4.0 1:188.0 2:9.0 3:0.0 4:0.0 5:1.5555555 6:0.68853056 7:2.333333 8:0.7601162 9:15.740741 10:13.333333 11:14.0 12:19.88889 13:-7.2222223 14:-5.2222223 15:12.444445 16:19.88889 17:0.3424082 18:2.2046695 
0.0 1.6409821020346302E-7 1.8986323337931306E-7 1.1534277099251577E-7 0.0 1.142272265005E-7 0:34.0 1:169.0 2:9.0 3:0.0 4:0.0 5:0.8333333 6:0.5055251 7:1.6111112 8:0.8798151 9:12.814815 10:10.666667 11:9.777778 12:18.0 13:-6.4444447 14:-9.111111 15:15.555555 16:18.0 17:0.46356925 18:1.9931829 
0.0 0.0 0.0 0.0 3.96630345517055E-9 0.0 0:103.0 1:174.0 2:9.0 3:0.11111111 4:0.0 5:1.4444447 6:1.1674602 7:1.6666666 8:1.2649112 9:23.185184 10:20.666668 11:19.88889 12:29.0 13:-7.5555553 14:-9.888889 15:17.444445 16:29.0 17:0.32797024 18:2.0336978 
9.327425159881107E-8 0.0 0.0 0.0 0.0 0.0 0:34.0 1:242.0 2:9.0 3:0.0 4:0.0 5:1.611111 6:1.638653 7:2.4444447 8:1.1088866 9:14.814815 10:11.333333 11:15.666667 12:17.444445 13:-10.444445 14:2.5555556 15:7.888889 16:17.444445 17:0.35316142 18:2.835614 
0.0 1.6409821020346302E-7 3.232177239059005E-8 1.1534277099251577E-7 0.0 1.142272265005E-7 0:197.0 1:156.0 2:9.0 3:0.0 4:0.0 5:0.9444439 6:0.49065349 7:2.0555558 8:1.705112 9:16.925926 10:13.444445 11:15.555555 12:21.777779 13:-10.444445 14:-4.111111 15:14.555555 16:21.777779 17:0.38463837 18:2.3635807 
0.0 1.6409821020346302E-7 1.8986323337931306E-7 1.1534277099251577E-7 3.96630345517055E-9 1.142272265005E-7 0:35.0 1:167.0 2:9.0 3:0.0 4:0.0 5:1.611111 6:0.9289586 7:1.5 8:1.130388 9:19.037037 10:16.777779 11:15.666667 12:24.666666 13:-6.7777777 14:-10.111111 15:16.88889 16:24.666666 17:0.36550307 18:1.9715719 
0.0 0.0 0.0 1.1534277099251577E-7 0.0 1.142272265005E-7 0:29.0 1:184.0 2:9.0 3:0.0 4:0.0 5:1.6111107 6:1.0628402 7:2.6666667 8:1.8973663 9:13.62963 10:11.444445 11:11.333333 12:18.11111 13:-6.5555553 14:-6.888889 15:13.444445 16:18.11111 17:0.3876632 18:2.080445 
0.0 1.6409821020346302E-7 1.8986323337931306E-7 1.1534277099251577E-7 0.0 1.142272265005E-7 0:145.0 1:170.0 2:9.0 3:0.0 4:0.0 5:1.277778 6:0.57413363 7:1.222222 8:0.86066276 9:16.407408 10:12.777778 11:16.88889 12:19.555555 13:-10.888889 14:1.4444444 15:9.444445 16:19.555555 17:0.34671864 18:2.7370737 
0.0 1.6409821020346302E-7 1.8986323337931306E-7 1.1534277099251577E-7 3.96630345517055E-9 1.142272265005E-7 0:100.0 1:155.0 2:9.0 3:0.0 4:0.0 5:0.49999967 6:0.45946836 7:0.8333333 8:0.349603 9:23.333334 10:20.0 11:20.666668 12:29.333334 13:-10.0 14:-8.0 15:18.0 16:29.333334 17:0.31808975 18:2.1693969 
0.0 0.0 1.2105004198326507E-7 1.1534277099251577E-7 3.96630345517055E-9 1.142272265005E-7 0:73.0 1:164.0 2:9.0 3:0.0 4:0.0 5:0.94444436 6:0.5741329 7:1.888889 8:1.0470407 9:23.148148 10:21.777779 11:19.11111 12:28.555555 13:-4.111111 14:-12.111111 15:16.222221 16:28.555555 17:0.330345 18:1.7983025 
0.0 1.6409821020346302E-7 1.8986323337931306E-7 1.1534277099251577E-7 0.0 1.142272265005E-7 0:144.0 1:169.0 2:9.0 3:0.0 4:0.0 5:1.1111107 6:0.77936363 7:1.3888884 8:0.74286735 9:17.11111 10:13.444445 11:18.0 12:19.88889 13:-11.0 14:2.6666667 15:8.333333 16:19.88889 17:0.32496518 18:2.8348217 
0.0 1.6409821020346302E-7 1.8986323337931306E-7 1.1534277099251577E-7 3.96630345517055E-9 1.142272265005E-7 0:11.0 1:163.0 2:9.0 3:0.0 4:0.0 5:1.0555553 6:0.928958 7:2.5000002 8:1.3123353 9:19.814816 10:17.444445 11:16.666668 12:25.333334 13:-7.111111 14:-9.444445 15:16.555555 16:25.333334 17:0.34426668 18:2.0016809 
0.0 1.6409821020346302E-7 0.0 0.0 0.0 0.0 0:230.0 1:162.0 2:9.0 3:0.0 4:0.0 5:1.6666666 6:1.0749676 7:0.9444442 8:0.5741337 9:17.333334 10:13.777778 11:15.888889 12:22.333334 13:-10.666667 14:-4.3333335 15:15.0 16:22.333334 17:0.38252184 18:2.3503675 
0.0 1.6409821020346302E-7 1.8986323337931306E-7 1.1534277099251577E-7 0.0 1.142272265005E-7 0:140.0 1:161.0 2:9.0 3:0.0 4:0.0 5:0.27777767 6:0.3277306 7:0.7777777 8:0.6206328 9:15.740741 10:12.444445 11:14.333333 12:20.444445 13:-9.888889 14:-4.2222223 15:14.111111 16:20.444445 17:0.39095718 18:2.3451326 
0.0 1.6409821020346302E-7 1.8986323337931306E-7 1.1534277099251577E-7 3.96630345517055E-9 1.142272265005E-7 0:158.0 1:151.0 2:9.0 3:0.0 4:0.0 5:0.38888898 6:0.38968158 7:4.4444447 8:4.0423675 9:19.0 10:15.222222 11:18.333334 12:23.444445 13:-11.333333 14:-2.0 15:13.333333 16:23.444445 17:0.352606 18:2.5052488 
0.0 1.6409821020346302E-7 1.8986323337931306E-7 2.0160842257320114E-9 0.0 1.142272265005E-7 0:183.0 1:157.0 2:9.0 3:0.0 4:0.0 5:0.6666667 6:0.4216376 7:2.1111114 8:0.62063295 9:19.666666 10:16.444445 11:18.666668 12:23.88889 13:-9.666667 14:-3.0 15:12.666667 16:23.88889 17:0.31418663 18:2.4052022 
0.0 0.0 0.0 1.1534277099251577E-7 3.96630345517055E-9 0.0 0:48.0 1:173.0 2:9.0 3:0.0 4:0.0 5:1.1666666 6:1.0697874 7:1.4444447 8:1.6420407 9:19.222221 10:16.444445 11:16.444445 12:24.777779 13:-8.333333 14:-8.333333 15:16.666666 16:24.777779 17:0.34965578 18:2.0995574 
9.327425159881107E-8 1.6409821020346302E-7 1.8986323337931306E-7 1.1534277099251577E-7 3.96630345517055E-9 1.142272265005E-7 0:44.0 1:162.0 2:9.0 3:0.0 4:0.0 5:0.88888836 6:0.4554205 7:1.9444447 8:1.3567389 9:24.518518 10:19.555555 11:24.11111 12:29.88889 13:-14.888889 14:-1.2222222 15:16.11111 16:29.88889 17:0.34703225 18:2.5573888 
9.327425159881107E-8 0.0 1.8986323337931306E-7 1.1534277099251577E-7 3.96630345517055E-9 0.0 0:99.0 1:160.0 2:9.0 3:0.0 4:0.0 5:2.0 6:0.84327424 7:3.055555 8:2.3609476 9:28.037037 10:21.11111 11:29.666666 12:33.333336 13:-20.777779 14:4.888889 15:15.888889 16:33.333336 17:0.36751375 18:2.8271055 
9.327425159881107E-8 0.0 0.0 0.0 3.96630345517055E-9 0.0 0:68.0 1:172.0 2:9.0 3:0.0 4:0.0 5:1.0555553 6:1.0628396 7:2.3333337 8:1.6996722 9:30.11111 10:24.555555 11:30.11111 12:35.666668 13:-16.666666 14:0.0 15:16.666666 16:35.666668 17:0.31229463 18:2.6178014 
3.77396179927627E-8 0.0 0.0 0.0 3.96630345517055E-9 0.0 0:212.0 1:160.0 2:9.0 3:0.0 4:0.0 5:1.4444441 6:1.2938602 7:1.4444443 8:1.7722135 9:23.25926 10:17.777779 11:23.444445 12:28.555555 13:-16.444445 14:0.5555556 15:15.888889 16:28.555555 17:0.37821564 18:2.6425967 
9.327425159881107E-8 1.6409821020346302E-7 1.8986323337931306E-7 1.1534277099251577E-7 3.96630345517055E-9 0.0 0:115.0 1:156.0 2:9.0 3:0.0 4:0.0 5:0.3888887 6:0.38968167 7:1.0555553 8:0.6469302 9:24.25926 10:17.222223 11:26.0 12:29.555555 13:-21.11111 14:5.2222223 15:15.888889 16:29.555555 17:0.41732758 18:2.8434196 
9.327425159881107E-8 1.6409821020346302E-7 1.8986323337931306E-7 1.1534277099251577E-7 3.96630345517055E-9 1.142272265005E-7 0:145.0 1:152.0 2:9.0 3:0.0 4:0.0 5:0.72222203 6:1.1434193 7:2.7777774 8:1.1088861 9:25.037037 10:19.666668 11:25.777779 12:29.666666 13:-16.11111 14:2.2222223 15:13.888889 16:29.666666 17:0.337989 18:2.7311342 
9.327425159881107E-8 1.6409821020346302E-7 1.8986323337931306E-7 1.1534277099251577E-7 3.96630345517055E-9 1.142272265005E-7 0:28.0 1:162.0 2:9.0 3:0.11111111 4:0.0 5:1.1666666 6:0.6236098 7:1.4444443 8:1.3277662 9:25.11111 10:19.666668 11:26.11111 12:29.555555 13:-16.333334 14:3.0 15:13.333333 16:29.555555 17:0.33512673 18:2.769038 
9.327425159881107E-8 1.6409821020346302E-7 1.8986323337931306E-7 1.1534277099251577E-7 3.96630345517055E-9 1.142272265005E-7 0:63.0 1:158.0 2:9.0 3:0.11111111 4:0.0 5:0.99999934 6:1.0540929 7:1.888889 8:1.29386 9:22.185184 10:16.444445 11:22.222221 12:27.88889 13:-17.222221 14:0.11111111 15:17.11111 16:27.88889 17:0.41181073 18:2.6247067 
9.327425159881107E-8 0.0 0.0 0.0 3.96630345517055E-9 0.0 0:9.0 1:180.0 2:9.0 3:0.0 4:0.0 5:1.166667 6:0.7226493 7:1.1666673 8:0.9831922 9:22.555555 10:17.444445 11:22.0 12:28.222221 13:-15.333333 14:-1.6666666 15:17.0 16:28.222221 17:0.38142902 18:2.5416608 
9.327425159881107E-8 0.0 1.8986323337931306E-7 2.187433559001983E-8 3.96630345517055E-9 0.0 0:52.0 1:170.0 2:9.0 3:0.0 4:0.0 5:0.55555564 6:0.4554201 7:0.94444436 8:0.38968262 9:25.444445 10:20.11111 11:25.333334 12:30.88889 13:-16.0 14:-0.33333334 15:16.333334 16:30.88889 17:0.34911168 18:2.6040132 
9.327425159881107E-8 0.0 1.8986323337931306E-7 0.0 3.96630345517055E-9 0.0 0:47.0 1:175.0 2:9.0 3:0.0 4:0.0 5:1.3333327 6:0.78881073 7:1.166666 8:0.88819396 9:23.74074 10:18.666668 11:23.777779 12:28.777779 13:-15.222222 14:0.11111111 15:15.111111 16:28.777779 17:0.35148725 18:2.630157 
0.0 0.0 0.0 0.0 3.96630345517055E-9 0.0 0:160.0 1:168.0 2:9.0 3:0.0 4:0.0 5:1.5 6:1.1498789 7:0.6666663 8:0.47140402 9:25.11111 10:20.88889 11:23.0 12:31.444445 13:-12.666667 14:-6.3333335 15:19.0 16:31.444445 17:0.33538613 18:2.302124 
9.327425159881107E-8 1.247350408672425E-7 1.8986323337931306E-7 0.0 3.96630345517055E-9 0.0 0:204.0 1:156.0 2:9.0 3:0.0 4:0.0 5:0.5000003 6:0.27888626 7:1.9999996 8:0.55777323 9:23.703703 10:17.333334 11:25.444445 12:28.333334 13:-19.11111 14:5.2222223 15:13.888889 16:28.333334 17:0.38903406 18:2.8649306 
9.327425159881107E-8 0.0 0.0 0.0 0.0 0.0 0:145.0 1:248.0 2:9.0 3:0.0 4:0.0 5:2.0555553 6:1.7180947 7:2.111111 8:1.3770607 9:26.88889 10:23.222221 11:25.11111 12:32.333336 13:-11.0 14:-5.3333335 15:16.333334 16:32.333336 17:0.2916751 18:2.2850983 
9.327425159881107E-8 0.0 0.0 0.0 3.96630345517055E-9 0.0 0:119.0 1:169.0 2:9.0 3:0.0 4:0.0 5:1.166667 6:0.98319227 7:0.9999997 8:0.91893625 9:25.962963 10:20.88889 11:25.0 12:32.0 13:-15.222222 14:-2.8888888 15:18.11111 16:32.0 17:0.34778315 18:2.4790645 
5.5373419309693424E-8 0.0 0.0 0.0 0.0 0.0 0:114.0 1:242.0 2:9.0 3:0.0 4:0.0 5:2.7222223 6:2.4532676 7:4.6666675 8:1.9206476 9:24.074074 10:19.222221 11:22.444445 12:30.555555 13:-14.555555 14:-4.888889 15:19.444445 16:30.555555 17:0.3716949 18:2.395778 
9.327425159881107E-8 0.0 0.0 0.0 0.0 0.0 0:60.0 1:181.0 2:9.0 3:0.11111111 4:0.0 5:1.6666666 6:1.2000005 7:2.6666667 8:2.0888875 9:19.62963 10:17.11111 11:17.88889 12:23.88889 13:-7.5555553 14:-5.2222223 15:12.777778 16:23.88889 17:0.28569087 18:2.1891353 
9.327425159881107E-8 0.0 0.0 0.0 3.96630345517055E-9 0.0 0:128.0 1:175.0 2:9.0 3:0.0 4:0.0 5:2.1666667 6:4.2111096 7:2.7222214 8:4.3296275 9:23.777779 10:20.88889 11:21.777779 12:28.666666 13:-8.666667 14:-6.0 15:14.666667 16:28.666666 17:0.2849537 18:2.2635381 
9.327425159881107E-8 0.0 0.0 0.0 0.0 0.0 0:6.0 1:217.0 2:9.0 3:0.0 4:0.0 5:2.111111 6:5.0962963 7:3.944444 8:12.50741 9:14.555555 10:11.444445 11:13.333333 12:18.88889 13:-9.333333 14:-3.6666667 15:13.0 16:18.88889 17:0.39533988 18:2.3638706 
9.327425159881107E-8 0.0 0.0 0.0 3.96630345517055E-9 0.0 0:71.0 1:180.0 2:9.0 3:0.11111111 4:0.0 5:1.222222 6:0.5629625 7:3.0 8:1.8666646 9:22.333334 10:18.333334 11:21.444445 12:27.222221 13:-12.0 14:-2.6666667 15:14.666667 16:27.222221 17:0.3273826 18:2.4538307 
0.0 1.6409821020346302E-7 0.0 0.0 0.0 1.142272265005E-7 0:192.0 1:157.0 2:9.0 3:0.0 4:0.0 5:1.0555559 6:0.5074076 7:0.77777797 8:0.16296285 9:18.333334 10:13.888889 11:17.222223 12:23.88889 13:-13.333333 14:-3.3333333 15:16.666666 16:23.88889 17:0.41818407 18:2.4386153 
9.327425159881107E-8 1.6409821020346302E-7 1.8986323337931306E-7 1.1534277099251577E-7 3.96630345517055E-9 1.142272265005E-7 0:20.0 1:170.0 2:9.0 3:0.0 4:0.0 5:0.7777777 6:0.7851843 7:1.1111103 8:0.56296223 9:19.555555 10:15.111111 11:18.88889 12:24.666666 13:-13.333333 14:-2.0 15:15.333333 16:24.666666 17:0.38746688 18:2.504391 
0.0 1.6409821020346302E-7 1.8986323337931306E-7 9.145235117676386E-8 1.8099331868817552E-9 1.142272265005E-7 0:248.0 1:149.0 2:9.0 3:0.0 4:0.0 5:1.166667 6:0.78888947 7:1.0555553 8:0.6407406 9:19.0 10:14.444445 11:19.777779 12:22.777779 13:-13.666667 14:2.3333333 15:11.333333 16:22.777779 17:0.36371678 18:2.7416468 
9.327425159881107E-8 1.6409821020346302E-7 1.8986323337931306E-7 1.1534277099251577E-7 3.96630345517055E-9 1.142272265005E-7 0:49.0 1:148.0 2:9.0 3:0.0 4:0.0 5:0.7777777 6:0.25185102 7:6.6666665 8:33.422226 9:15.962963 10:12.0 11:16.88889 12:19.0 13:-11.888889 14:2.7777777 15:9.111111 16:19.444445 17:0.4037081 18:2.9124804 
9.327425159881107E-8 0.0 0.0 0.0 0.0 0.0 0:25.0 1:199.0 2:9.0 3:0.0 4:0.0 5:1.1111112 6:0.60740685 7:1.0555558 8:0.4629626 9:17.518518 10:13.111111 11:17.88889 12:21.555555 13:-13.222222 14:1.1111112 15:12.111111 16:21.555555 17:0.39300215 18:2.6901116 
9.327425159881107E-8 1.0684213222693213E-7 1.8986323337931306E-7 1.1534277099251577E-7 3.96630345517055E-9 1.142272265005E-7 0:6.0 1:174.0 2:9.0 3:0.0 4:0.0 5:1.8888888 6:1.0074061 7:2.8888886 8:4.0296297 9:19.074074 10:15.111111 11:17.777779 12:24.333334 13:-11.888889 14:-3.8888888 15:15.777778 16:24.333334 17:0.38186744 18:2.3950183 
9.327425159881107E-8 1.6409821020346302E-7 1.8986323337931306E-7 1.1534277099251577E-7 3.96630345517055E-9 1.142272265005E-7 0:44.0 1:157.0 2:9.0 3:0.0 4:0.0 5:0.83333397 6:0.30000025 7:2.9444444 8:7.6185203 9:24.296297 10:19.222221 11:24.222221 12:29.444445 13:-15.222222 14:-0.22222222 15:15.444445 16:29.444445 17:0.35004318 18:2.6043034 
0.0 1.6409821020346302E-7 0.0 0.0 0.0 6.081521156631035E-8 0:205.0 1:156.0 2:9.0 3:0.0 4:0.0 5:2.1666667 6:1.2777781 7:2.0 8:2.3555562 9:18.25926 10:13.444445 11:17.333334 12:24.0 13:-14.444445 14:-2.7777777 15:17.222221 16:24.0 17:0.44057688 18:2.47582 
0.0 1.6409821020346302E-7 1.8986323337931306E-7 1.1534277099251577E-7 3.96630345517055E-9 1.142272265005E-7 0:179.0 1:150.0 2:9.0 3:0.0 4:0.0 5:1.055555 6:0.1962963 7:1.7222223 8:1.6185163 9:18.925926 10:13.444445 11:20.0 12:23.333334 13:-16.444445 14:3.2222223 15:13.222222 16:23.333334 17:0.42442176 18:2.7916744 
9.327425159881107E-8 0.0 0.0 0.0 2.1563702682887956E-9 0.0 0:57.0 1:177.0 2:9.0 3:0.0 4:0.0 5:0.94444495 6:0.55185163 7:1.4444443 8:1.71852 9:19.592592 10:15.777778 11:18.444445 12:24.555555 13:-11.444445 14:-3.4444444 15:14.888889 16:24.555555 17:0.3589904 18:2.413262 
9.327425159881107E-8 0.0 0.0 0.0 0.0 0.0 0:16.0 1:246.0 2:9.0 3:0.11111111 4:0.0 5:2.3888888 6:1.0851847 7:1.722222 8:1.7518522 9:9.407408 10:9.555555 11:10.111111 12:8.555555 13:0.44444445 14:2.1111112 15:-2.5555556 16:10.333334 17:0.16335146 18:-1.1905607 
0.0 1.6409821020346302E-7 1.8986323337931306E-7 1.1534277099251577E-7 0.0 1.142272265005E-7 0:234.0 1:164.0 2:9.0 3:0.0 4:0.0 5:0.5000002 6:0.2111112 7:3.0 8:8.04445 9:13.666667 10:11.666667 11:15.0 12:14.333333 13:-6.0 14:4.0 15:2.0 16:16.88889 17:0.29914993 18:2.87512 
0.0 1.6409821020346302E-7 1.8986323337931306E-7 1.1534277099251577E-7 0.0 1.142272265005E-7 0:191.0 1:165.0 2:9.0 3:0.0 4:0.0 5:0.33333334 6:0.17777783 7:2.4444442 8:1.140741 9:14.296296 10:12.0 11:14.111111 12:16.777779 13:-6.888889 14:-0.5555556 15:7.4444447 16:17.555555 17:0.31812865 18:2.5935428 
0.0 1.6409821020346302E-7 0.0 1.1534277099251577E-7 0.0 1.142272265005E-7 0:63.0 1:179.0 2:9.0 3:0.0 4:0.0 5:0.6666668 6:0.22222233 7:1.5555557 8:0.5629631 9:11.814815 10:9.777778 11:9.444445 12:16.222223 13:-6.111111 14:-7.111111 15:13.222222 16:16.222223 17:0.41976216 18:2.04457 
9.327425159881107E-8 0.0 0.0 0.0 0.0 0.0 0:152.0 1:247.0 2:9.0 3:0.0 4:0.22222222 5:1.6111107 6:1.2185191 7:7.1111107 8:4.340751 9:21.925926 10:21.11111 11:25.11111 12:19.555555 13:-2.4444444 14:9.555555 15:-7.111111 16:25.11111 17:0.21578804 18:-1.7554835 
9.327425159881107E-8 1.6409821020346302E-7 1.8986323337931306E-7 1.1534277099251577E-7 3.96630345517055E-9 1.142272265005E-7 0:37.0 1:167.0 2:9.0 3:0.0 4:0.0 5:0.888889 6:0.56296337 7:7.5555553 8:4.6074057 9:14.074074 10:11.666667 11:16.777779 12:13.777778 13:-7.2222223 14:8.111111 15:-0.8888889 16:17.666668 17:0.31450674 18:-3.015081 
0.0 1.6409821020346302E-7 1.8986323337931306E-7 1.1534277099251577E-7 0.0 1.142272265005E-7 0:110.0 1:174.0 2:9.0 3:0.0 4:0.0 5:0.38888884 6:0.06296291 7:1.7222222 8:0.15185165 9:13.481482 10:10.888889 11:12.555555 12:17.0 13:-7.7777777 14:-2.7777777 15:10.555555 16:17.0 17:0.35929558 18:2.3778543 
0.0 1.6409821020346302E-7 1.8986323337931306E-7 1.1534277099251577E-7 0.0 1.142272265005E-7 0:118.0 1:167.0 2:9.0 3:0.11111111 4:0.0 5:0.88888866 6:0.5185182 7:2.0555553 8:0.99629617 9:14.592592 10:12.888889 11:13.777778 12:17.11111 13:-5.111111 14:-2.4444444 15:7.5555553 16:17.11111 17:0.24844901 18:2.3057292 
0.0 9.66192473127514E-8 0.0 0.0 0.0 0.0 0:161.0 1:176.0 2:9.0 3:0.0 4:0.0 5:0.38888898 6:0.15185188 7:1.1666666 8:0.3888888 9:13.0 10:10.111111 11:11.777778 12:17.11111 13:-8.666667 14:-3.6666667 15:12.333333 16:17.11111 17:0.40773422 18:2.3406181 
0.0 1.6409821020346302E-7 0.0 0.0 0.0 1.142272265005E-7 0:243.0 1:166.0 2:9.0 3:0.0 4:0.0 5:0.61111116 6:0.3296294 7:0.72222203 8:0.32962978 9:13.37037 10:11.222222 11:12.111111 12:16.777779 13:-6.4444447 14:-3.7777777 15:10.222222 16:16.777779 17:0.33051255 18:2.2642767 
9.327425159881107E-8 0.0 1.8986323337931306E-7 0.0 3.96630345517055E-9 0.0 0:204.0 1:156.0 2:9.0 3:0.0 4:0.0 5:0.5000003 6:0.27888626 7:1.9999996 8:0.55777323 9:23.703703 10:17.333334 11:25.444445 12:28.333334 13:-19.11111 14:5.2222223 15:13.888889 16:28.333334 17:0.38903406 18:2.8649306 
9.327425159881107E-8 0.0 0.0 0.0 3.96630345517055E-9 0.0 0:71.0 1:180.0 2:9.0 3:0.11111111 4:0.0 5:1.222222 6:0.5629625 7:3.0 8:1.8666646 9:22.333334 10:18.333334 11:21.444445 12:27.222221 13:-12.0 14:-2.6666667 15:14.666667 16:27.222221 17:0.3273826 18:2.4538307 
9.327425159881107E-8 0.0 0.0 0.0 0.0 0.0 0:60.0 1:181.0 2:9.0 3:0.11111111 4:0.0 5:1.6666666 6:1.2000005 7:2.6666667 8:2.0888875 9:19.62963 10:17.11111 11:17.88889 12:23.88889 13:-7.5555553 14:-5.2222223 15:12.777778 16:23.88889 17:0.28569087 18:2.1891353 
1.6121429635491213E-10 0.0 0.0 0.0 0.0 0.0 0:57.0 1:177.0 2:9.0 3:0.0 4:0.0 5:0.94444495 6:0.55185163 7:1.4444443 8:1.71852 9:19.592592 10:15.777778 11:18.444445 12:24.555555 13:-11.444445 14:-3.4444444 15:14.888889 16:24.555555 17:0.3589904 18:2.413262 
9.327425159881107E-8 0.0 1.8986323337931306E-7 0.0 3.96630345517055E-9 0.0 0:52.0 1:170.0 2:9.0 3:0.0 4:0.0 5:0.55555564 6:0.4554201 7:0.94444436 8:0.38968262 9:25.444445 10:20.11111 11:25.333334 12:30.88889 13:-16.0 14:-0.33333334 15:16.333334 16:30.88889 17:0.34911168 18:2.6040132 
-0.0 0.0 0.0 0.0 7.063548473567615E-9 0.0 0:54.0 1:176.0 2:9.0 3:0.0 4:0.0 5:2.1111126 6:0.68853056 7:2.6666672 8:2.6915512 9:50.666668 10:46.0 11:62.666668 12:43.333332 13:-14.0 14:36.0 15:-22.0 16:62.666668 17:0.30857325 18:-1.9514097 
-0.0 0.0 1.148530734488453E-7 0.0 0.0 0.0 0:65.0 1:176.0 2:9.0 3:0.0 4:0.0 5:2.8888886 6:1.4707015 7:1.5 8:1.1690452 9:49.74074 10:45.22222 11:61.0 12:43.0 13:-13.555555 14:33.77778 15:-20.222221 16:61.0 17:0.294787 18:-1.9657031 
-0.0 5.042888026429021E-8 1.9767462463240347E-7 4.3795836789703E-8 0.0 3.567900194829484E-8 0:24.0 1:172.0 2:9.0 3:0.0 4:0.0 5:1.166667 6:0.9128703 7:9.777778 8:5.455545 9:42.037037 10:38.0 11:50.333332 12:37.77778 13:-12.111111 14:24.88889 15:-12.777778 16:50.333332 17:0.24983571 18:-2.143718 
-0.0 0.0 0.0 0.0 7.063548473567615E-9 0.0 0:53.0 1:176.0 2:9.0 3:0.0 4:0.0 5:1.9444453 6:0.8798155 7:1.5555559 8:1.9962938 9:50.296295 10:45.444443 11:62.11111 12:43.333332 13:-14.555555 14:35.444443 15:-20.88889 16:62.11111 17:0.3024212 18:-1.9775702 
-0.0 5.042888026429021E-8 1.9767462463240347E-7 4.3795836789703E-8 0.0 3.567900194829484E-8 0:23.0 1:172.0 2:9.0 3:0.0 4:0.0 5:1.333334 6:0.8944272 7:9.166667 8:5.8566217 9:42.333332 10:38.0 11:51.22222 12:37.77778 13:-13.0 14:26.666666 15:-13.666667 16:51.22222 17:0.26545405 18:-2.1265585 
-0.0 0.0 1.9767462463240347E-7 4.3795836789703E-8 7.063548473567615E-9 3.567900194829484E-8 0:10.0 1:172.0 2:9.0 3:0.0 4:0.0 5:4.277777 6:4.38896 7:6.6666656 8:7.360555 9:44.77778 10:40.333336 11:54.666668 12:39.333336 13:-13.333333 14:29.666666 15:-16.333334 16:54.666668 17:0.27804413 18:-2.0524528 
-0.0 0.0 1.9767462463240347E-7 4.3795836789703E-8 7.063548473567615E-9 0.0 0:9.0 1:171.0 2:9.0 3:0.0 4:0.0 5:1.4999994 6:1.0055392 7:2.7777774 8:1.64204 9:45.925926 10:41.0 11:57.22222 12:39.555557 13:-14.777778 14:33.88889 15:-19.11111 16:57.22222 17:0.30794257 18:-2.0107226 
-0.0 2.7819210195384762E-8 1.9767462463240347E-7 4.3795836789703E-8 7.063548473567615E-9 3.567900194829484E-8 0:2.0 1:171.0 2:9.0 3:0.0 4:0.0 5:1.9444447 6:1.2186809 7:3.6666667 8:3.1269426 9:45.77778 10:41.0 11:56.333332 12:40.0 13:-14.333333 14:31.666666 15:-17.333334 16:56.333332 17:0.28798285 18:-2.0329285 
-0.0 0.0 1.9767462463240347E-7 4.3795836789703E-8 0.0 0.0 0:32.0 1:173.0 2:9.0 3:0.0 4:0.0 5:1.7222217 6:1.7815932 7:9.0 8:6.749488 9:43.592594 10:39.555557 11:52.88889 12:38.333336 13:-12.111111 14:27.88889 15:-15.777778 16:52.88889 17:0.26691392 18:-1.9988575 
-0.0 0.0 0.0 0.0 7.063548473567615E-9 0.0 0:140.0 1:188.0 2:9.0 3:0.0 4:0.0 5:2.0 6:2.1081848 7:3.0555546 8:2.4981472 9:61.666668 10:54.444443 11:76.55556 12:54.0 13:-21.666666 14:44.666668 15:-23.0 16:76.55556 17:0.29562417 18:-2.074028 
-0.0 0.0 0.0 0.0 7.063548473567615E-9 0.0 0:105.0 1:189.0 2:9.0 3:0.0 4:0.0 5:2.0555553 6:1.5116827 7:4.4444447 8:3.4555368 9:61.407406 10:55.0 11:75.44444 12:53.77778 13:-19.222221 14:42.11111 15:-22.88889 16:75.44444 17:0.28551513 18:-2.0358937 
-0.0 0.0 0.0 0.0 7.063548473567615E-9 0.0 0:86.0 1:197.0 2:9.0 3:0.11111111 4:0.11111111 5:1.611112 6:1.4516907 7:1.2777786 8:1.1038647 9:63.22222 10:56.22222 11:77.77778 12:55.666668 13:-21.0 14:43.666668 15:-22.666666 16:77.77778 17:0.28533262 18:-2.06802 
-0.0 0.0 0.0 0.0 7.063548473567615E-9 0.0 0:73.0 1:194.0 2:9.0 3:0.0 4:0.0 5:3.222222 6:2.3349202 7:4.611112 8:3.3560352 9:60.77778 10:53.444443 11:76.111115 12:52.77778 13:-22.0 14:46.0 15:-24.0 16:76.111115 17:0.30925295 18:-2.0605488 
-0.0 0.0 0.0 0.0 7.063548473567615E-9 0.0 0:174.0 1:181.0 2:9.0 3:0.0 4:0.0 5:3.2777786 6:3.1511326 7:4.1666675 8:2.786875 9:59.074074 10:52.333332 11:74.22222 12:50.666668 13:-20.222221 14:45.444443 15:-25.222221 16:74.22222 17:0.31734532 18:-2.0208647 
-0.0 0.0 0.0 0.0 7.063548473567615E-9 0.0 0:177.0 1:181.0 2:9.0 3:0.0 4:0.0 5:4.277778 6:1.7309828 7:2.555556 8:1.4857335 9:60.62963 10:53.666668 11:75.66667 12:52.555557 13:-20.88889 14:45.11111 15:-24.222221 16:75.66667 17:0.3069927 18:-2.0445633 
-0.0 0.0 0.0 0.0 7.063548473567615E-9 0.0 0:234.0 1:175.0 2:9.0 3:0.0 4:0.0 5:1.9444441 6:1.323576 7:3.4444454 8:2.2574966 9:57.77778 10:50.666668 11:72.66667 12:50.0 13:-21.333334 14:44.666668 15:-23.333334 16:72.66667 17:0.31203708 18:-2.0637763 
-0.0 0.0 0.0 0.0 7.063548473567615E-9 0.0 0:223.0 1:175.0 2:9.0 3:0.0 4:0.0 5:3.7777786 6:3.1245742 7:7.166668 8:4.68923 9:57.851852 10:50.77778 11:72.77778 12:50.0 13:-21.222221 14:44.77778 15:-23.555555 16:72.77778 17:0.31283396 18:-2.05935 
-0.0 0.0 0.0 0.0 7.063548473567615E-9 0.0 0:96.0 1:196.0 2:9.0 3:0.0 4:0.0 5:3.4999988 6:1.2605116 7:7.3888893 8:3.6782641 9:63.51852 10:56.0 11:79.111115 12:55.444443 13:-22.555555 14:46.77778 15:-24.222221 16:79.111115 17:0.30158615 18:-2.0704408 
-0.0 0.0 0.0 0.0 7.063548473567615E-9 0.0 0:121.0 1:189.0 2:9.0 3:0.0 4:0.0 5:2.277778 6:2.1951132 7:4.944445 8:4.007863 9:62.074074 10:54.77778 11:77.55556 12:53.88889 13:-21.88889 14:46.444443 15:-24.555555 16:77.55556 17:0.30540445 18:-2.054084 
-0.0 0.0 0.0 0.0 7.063548473567615E-9 0.0 0:106.0 1:191.0 2:9.0 3:0.0 4:0.0 5:3.166668 6:3.0313168 7:2.8333313 8:2.896358 9:63.0 10:55.11111 11:79.55556 12:54.333332 13:-23.666666 14:49.666668 15:-26.0 16:79.55556 17:0.31752294 18:-2.0622857 
-0.0 0.0 0.0 0.0 6.66938249098081E-9 0.0 0:89.0 1:195.0 2:9.0 3:0.11111111 4:0.0 5:2.7222226 6:1.8668653 7:3.1666667 8:1.8226969 9:61.74074 10:55.11111 11:76.55556 12:53.555557 13:-19.88889 14:44.444443 15:-24.555555 16:76.55556 17:0.30023456 18:-2.020938 
-0.0 0.0 0.0 0.0 7.063548473567615E-9 0.0 0:129.0 1:188.0 2:9.0 3:0.0 4:0.0 5:3.6666667 6:2.0110817 7:4.6111107 8:2.4075518 9:61.074074 10:53.77778 11:76.0 12:53.444443 13:-21.88889 14:44.77778 15:-22.88889 16:76.0 17:0.30013013 18:-2.0790954 
-0.0 0.0 0.0 0.0 3.9416598258680447E-10 0.0 0:251.0 1:173.0 2:9.0 3:0.11111111 4:0.0 5:2.1666672 6:1.8348475 7:2.3888881 8:1.2367805 9:56.77778 10:49.88889 11:71.55556 12:48.88889 13:-20.666666 14:44.333332 15:-23.666666 16:71.55556 17:0.3183665 18:-2.048199 
-0.0 0.0 0.0 0.0 7.063548473567615E-9 0.0 0:239.0 1:174.0 2:9.0 3:0.0 4:0.0 5:2.0000007 6:1.4452988 7:1.3888887 8:0.85418344 9:57.851852 10:50.444443 11:73.22222 12:49.88889 13:-22.222221 14:46.11111 15:-23.88889 16:73.22222 17:0.32026085 18:-2.069045 
-0.0 0.0 0.0 0.0 7.063548473567615E-9 0.0 0:139.0 1:185.0 2:9.0 3:0.0 4:0.0 5:1.9999994 6:0.63245475 7:1.222222 8:1.9051588 9:59.148148 10:52.22222 11:73.44444 12:51.77778 13:-20.777779 14:42.88889 15:-22.11111 16:73.44444 17:0.29643956 18:-2.0738695 
-0.0 0.0 0.0 0.0 7.063548473567615E-9 0.0 0:104.0 1:191.0 2:9.0 3:0.0 4:0.0 5:3.222222 6:1.9739053 7:3.777778 8:2.9033842 9:63.074074 10:55.333332 11:79.22222 12:54.666668 13:-23.222221 14:48.444443 15:-25.222221 16:79.22222 17:0.31158692 18:-2.0659478 
-0.0 0.0 0.0 0.0 7.063548473567615E-9 0.0 0:96.0 1:193.0 2:9.0 3:0.0 4:0.0 5:1.3333327 6:1.115547 7:1.8333327 8:1.8469193 9:62.703705 10:54.77778 11:78.77778 12:54.555557 13:-23.777779 14:48.22222 15:-24.444445 16:78.77778 17:0.310288 18:-2.0849354 
-0.0 0.0 0.0 0.0 7.063548473567615E-9 0.0 0:219.0 1:176.0 2:9.0 3:0.0 4:0.11111111 5:2.1111119 6:1.857917 7:5.111111 8:2.8414931 9:60.296295 10:53.333332 11:75.66667 12:51.88889 13:-20.88889 14:46.11111 15:-25.222221 16:75.66667 17:0.31446242 18:-2.0306482 
-0.0 0.0 0.0 0.0 7.063548473567615E-9 0.0 0:191.0 1:180.0 2:9.0 3:0.11111111 4:0.0 5:3.555556 6:1.186343 7:2.222222 8:1.1088873 9:60.074074 10:53.22222 11:75.44444 12:51.555557 13:-20.555555 14:46.11111 15:-25.555555 16:75.44444 17:0.31801003 18:-2.0221484 
-0.0 0.0 0.0 0.0 7.063548473567615E-9 0.0 0:139.0 1:187.0 2:9.0 3:0.0 4:0.0 5:2.055556 6:1.1238163 7:1.8333334 8:1.0697875 9:60.444443 10:53.666668 11:74.77778 12:52.88889 13:-20.333334 14:43.0 15:-22.666666 16:74.77778 17:0.29269224 18:-2.0582106 
-0.0 0.0 0.0 0.0 7.063548473567615E-9 0.0 0:218.0 1:178.0 2:9.0 3:0.11111111 4:0.0 5:0.8333327 6:0.54772234 7:1.1111094 8:0.5443307 9:59.62963 10:52.444443 11:75.22222 12:51.22222 13:-21.555555 14:46.77778 15:-25.222221 16:75.22222 17:0.31899637 18:-2.0405545 
-0.0 0.0 0.0 0.0 7.063548473567615E-9 0.0 0:95.0 1:191.0 2:9.0 3:0.0 4:0.11111111 5:3.1666667 6:2.786874 7:6.0000014 8:5.1854515 9:60.25926 10:52.444443 11:76.22222 12:52.11111 13:-23.444445 14:47.88889 15:-24.444445 16:76.22222 17:0.3208649 18:-2.0776508 
-0.0 0.0 0.0 0.0 7.063548473567615E-9 0.0 0:107.0 1:191.0 2:9.0 3:0.0 4:0.0 5:3.722222 6:2.999382 7:2.8888874 8:2.7862093 9:62.037037 10:54.444443 11:78.111115 12:53.555557 13:-22.777779 14:48.22222 15:-25.444445 16:78.111115 17:0.3146827 18:-2.0561104 
-0.0 0.0 0.0 0.0 7.063548473567615E-9 0.0 0:86.0 1:193.0 2:9.0 3:0.0 4:0.0 5:3.2777793 6:1.6521593 7:2.222222 8:1.8094397 9:61.407406 10:53.666668 11:76.55556 12:54.0 13:-23.222221 14:45.444443 15:-22.222221 16:76.55556 17:0.29957896 18:-2.1093748 
-0.0 0.0 0.0 0.0 7.063548473567615E-9 0.0 0:187.0 1:180.0 2:9.0 3:0.0 4:0.0 5:4.055556 6:2.9845276 7:3.3333333 8:3.19722 9:62.074074 10:54.88889 11:77.55556 12:53.77778 13:-21.555555 14:46.444443 15:-24.88889 16:77.55556 17:0.30690557 18:-2.0441787 
-0.0 5.042888026429021E-8 1.9767462463240347E-7 4.273689464636712E-8 0.0 3.567900194829484E-8 0:214.0 1:161.0 2:9.0 3:0.0 4:0.0 5:3.7222223 6:0.72963357 7:11.5 8:18.922234 9:40.444443 10:35.333336 11:49.666668 12:36.333336 13:-15.333333 14:27.666666 15:-12.333333 16:49.666668 17:0.29805613 18:-2.198939 
-0.0 5.042888026429021E-8 1.9767462463240347E-7 4.3795836789703E-8 0.0 3.567900194829484E-8 0:145.0 1:163.0 2:9.0 3:0.0 4:0.0 5:3.1111114 6:13.496301 7:18.666666 8:27.244467 9:39.444443 10:34.0 11:47.77778 12:36.555557 13:-16.333334 14:25.0 15:-8.666667 16:48.11111 17:0.28153613 18:-2.4253242 
-0.0 0.0 1.9767462463240347E-7 0.0 0.0 0.0 0:204.0 1:161.0 2:9.0 3:0.0 4:0.0 5:1.2777799 6:0.5074075 7:9.222222 8:73.0963 9:44.074074 10:38.0 11:54.555557 12:39.666668 13:-18.222221 14:31.444445 15:-13.222222 16:54.555557 17:0.3081043 18:-2.2382925 
-0.0 5.042888026429021E-8 1.9767462463240347E-7 4.3795836789703E-8 0.0 3.567900194829484E-8 0:141.0 1:163.0 2:9.0 3:0.0 4:0.0 5:0.7777767 6:0.42963055 7:18.777777 8:1.851823 9:40.703705 10:35.22222 11:48.88889 12:38.0 13:-16.444445 14:24.555555 15:-8.111111 16:48.88889 17:0.27005577 18:-2.3884537 
-0.0 5.042888026429021E-8 1.9767462463240347E-7 4.3795836789703E-8 0.0 0.0 0:151.0 1:163.0 2:9.0 3:0.0 4:0.0 5:2.0555556 6:2.2851863 7:18.166666 8:41.988934 9:40.0 10:34.555557 11:48.0 12:37.444443 13:-16.333334 14:24.0 15:-7.6666665 16:48.11111 17:0.2638465 18:-2.5174901 
-0.0 3.909367782569966E-8 1.9767462463240347E-7 0.0 0.0 0.0 0:223.0 1:161.0 2:9.0 3:0.0 4:0.0 5:1.3888893 6:3.040736 7:8.999999 8:31.022234 9:42.037037 10:36.0 11:52.22222 12:37.88889 13:-18.11111 14:30.555555 15:-12.444445 16:52.22222 17:0.30841646 18:-2.282295 
-9.327425159881107E-8 5.042888026429021E-8 1.9767462463240347E-7 4.3795836789703E-8 0.0 3.567900194829484E-8 0:142.0 1:163.0 2:9.0 3:0.0 4:0.0 5:1.4999994 6:0.87777835 7:17.666666 8:3.2444987 9:40.444443 10:35.0 11:48.555557 12:37.77778 13:-16.333334 14:24.333334 15:-8.0 16:48.555557 17:0.2689782 18:-2.3927407 
-9.327425159881107E-8 5.042888026429021E-8 1.9767462463240347E-7 4.3795836789703E-8 0.0 3.567900194829484E-8 0:37.0 1:165.0 2:9.0 3:0.0 4:0.0 5:2.388889 6:8.1074 7:16.444445 8:23.89629 9:35.814816 10:30.777779 11:42.88889 12:33.77778 13:-15.111111 14:21.222221 15:-6.111111 16:42.88889 17:0.2736466 18:-2.470153 
-0.0 5.042888026429021E-8 1.9767462463240347E-7 0.0 0.0 0.0 0:248.0 1:160.0 2:9.0 3:0.0 4:0.0 5:3.0 6:8.888896 7:2.166668 8:3.7666693 9:43.925926 10:37.11111 11:57.11111 12:37.555557 13:-20.444445 14:39.555557 15:-19.11111 16:57.11111 17:0.35403678 18:-2.1137917 
-0.0 5.042888026429021E-8 1.9767462463240347E-7 4.3795836789703E-8 0.0 0.0 0:181.0 1:162.0 2:9.0 3:0.0 4:0.0 5:2.6666653 6:7.155551 7:13.388888 8:9.662939 9:42.185184 10:36.444443 11:51.333332 12:38.77778 13:-17.222221 14:27.444445 15:-10.222222 16:51.333332 17:0.28552282 18:-2.3274822 
-0.0 0.0 1.9767462463240347E-7 0.0 0.0 0.0 0:149.0 1:163.0 2:9.0 3:0.0 4:0.0 5:2.6111107 6:12.151846 7:14.0 8:48.8889 9:41.666668 10:35.444447 11:51.333332 12:38.22222 13:-18.666666 14:29.0 15:-10.333333 16:51.333332 17:0.29754734 18:-2.384441 
-0.0 0.0 1.9767462463240347E-7 0.0 0.0 0.0 0:239.0 1:160.0 2:9.0 3:0.0 4:0.0 5:1.8333334 6:0.9222209 7:5.944443 8:4.5962973 9:45.148148 10:37.88889 11:58.333332 12:39.22222 13:-21.777779 14:39.555557 15:-17.777779 16:58.333332 17:0.35212588 18:-2.1629994 
-0.0 3.7024372226702996E-8 0.0 0.0 0.0 0.0 0:254.0 1:159.0 2:9.0 3:0.0 4:0.0 5:3.5555553 6:7.54074 7:14.833333 8:152.7 9:36.62963 10:31.333334 11:46.22222 12:32.333336 13:-15.888889 14:28.777779 15:-12.888889 16:46.22222 17:0.29484537 18:-2.316872 
-0.0 5.042888026429021E-8 1.9767462463240347E-7 4.3795836789703E-8 0.0 3.567900194829484E-8 0:179.0 1:162.0 2:9.0 3:0.0 4:0.0 5:1.9444447 6:1.3074076 7:14.055556 8:5.929622 9:40.296295 10:34.666668 11:49.22222 12:37.0 13:-16.88889 14:26.777779 15:-9.888889 16:49.22222 17:0.28965172 18:-2.3411982 
-0.0 5.042888026429021E-8 1.9767462463240347E-7 4.3795836789703E-8 0.0 3.567900194829484E-8 0:180.0 1:162.0 2:9.0 3:0.0 4:0.0 5:3.1111095 6:5.762963 7:12.944446 8:9.396256 9:41.48148 10:35.666668 11:50.555557 12:38.22222 13:-17.444445 14:27.222221 15:-9.777778 16:50.555557 17:0.29110643 18:-2.3353713 
-0.0 1.5818132154057183E-8 0.0 0.0 0.0 0.0 0:254.0 1:159.0 2:9.0 3:0.0 4:0.0 5:3.5555553 6:7.54074 7:14.833333 8:152.7 9:36.62963 10:31.333334 11:46.22222 12:32.333336 13:-15.888889 14:28.777779 15:-12.888889 16:46.22222 17:0.29484537 18:-2.316872 
-9.327425159881107E-8 5.042888026429021E-8 1.9767462463240347E-7 4.3795836789703E-8 0.0 3.567900194829484E-8 0:137.0 1:163.0 2:9.0 3:0.0 4:0.0 5:1.4444441 6:0.78518575 7:18.888887 8:5.5407553 9:39.296295 10:33.77778 11:47.555557 12:36.555557 13:-16.555555 14:24.777779 15:-8.222222 16:47.555557 17:0.28481323 18:-2.3952131 
-0.0 5.042888026429021E-8 1.9767462463240347E-7 0.0 0.0 0.0 0:250.0 1:160.0 2:9.0 3:0.0 4:0.0 5:2.1111114 6:1.1851863 7:1.5555553 8:2.740741 9:42.814816 10:36.444443 11:55.333332 12:36.666668 13:-19.11111 14:37.555557 15:-18.444445 16:55.333332 17:0.34714225 18:-2.1023183 
-9.327425159881107E-8 0.0 0.0 0.0 0.0 0.0 0:78.0 1:186.0 2:9.0 3:0.0 4:0.0 5:2.833334 6:2.1222198 7:3.5555556 8:4.2074056 9:35.296295 10:31.222221 11:43.88889 12:30.777779 13:-12.222222 14:25.777779 15:-13.555555 16:43.88889 17:0.30228558 18:-2.0601218 
-9.327425159881107E-8 5.042888026429021E-8 0.0 4.3795836789703E-8 0.0 3.567900194829484E-8 0:13.0 1:191.0 2:9.0 3:0.0 4:0.0 5:3.5555556 6:5.4074097 7:7.777778 8:40.02962 9:25.296297 10:23.555555 11:29.88889 12:22.444445 13:-5.2222223 14:13.777778 15:-8.555555 16:30.11111 17:0.2371126 18:-1.8582636 
-9.327425159881107E-8 0.0 0.0 4.3795836789703E-8 0.0 3.567900194829484E-8 0:23.0 1:188.0 2:9.0 3:0.0 4:0.0 5:1.6666673 6:0.4888878 7:7.38889 8:37.218513 9:30.592592 10:27.444445 11:37.77778 12:26.555555 13:-9.444445 14:21.555555 15:-12.111111 16:37.77778 17:0.28414816 18:-2.0145087 
-0.0 5.042888026429021E-8 0.0 0.0 0.0 0.0 0:204.0 1:177.0 2:9.0 3:0.0 4:0.0 5:1.7777786 6:10.696298 7:8.333332 8:27.333357 9:32.88889 10:29.0 11:40.666668 12:29.0 13:-11.666667 14:23.333334 15:-11.666667 16:40.666668 17:0.28108954 18:-2.1008399 
-9.327425159881107E-8 5.042888026429021E-8 0.0 4.3795836789703E-8 0.0 3.567900194829484E-8 0:1.0 1:189.0 2:9.0 3:0.0 4:0.0 5:1.3888875 6:0.4629626 7:12.388889 8:84.59629 9:23.592592 10:21.11111 11:29.333334 12:20.333334 13:-7.4444447 14:17.222221 15:-9.777778 16:29.333334 17:0.23309669 18:-2.0197496 
-9.327425159881107E-8 0.0 0.0 1.4574387316469541E-8 0.0 3.567900194829484E-8 0:36.0 1:189.0 2:9.0 3:0.0 4:0.0 5:1.9444441 6:2.4629607 7:5.8333335 8:21.588884 9:31.37037 10:28.444445 11:38.0 12:27.666666 13:-8.777778 14:19.88889 15:-11.111111 16:38.0 17:0.2663022 18:-2.0203454 
-9.327425159881107E-8 0.0 0.0 4.3795836789703E-8 0.0 3.567900194829484E-8 0:35.0 1:189.0 2:9.0 3:0.0 4:0.0 5:2.5555544 6:2.8740702 7:4.5 8:15.366663 9:31.925926 10:29.0 11:38.555557 12:28.222221 13:-8.777778 14:19.88889 15:-11.111111 16:38.555557 17:0.26298115 18:-2.0222268 
-9.327425159881107E-8 4.482577336066596E-9 0.0 0.0 0.0 0.0 0:194.0 1:178.0 2:9.0 3:0.0 4:0.0 5:1.222222 6:1.0518546 7:8.0 8:12.577775 9:33.666668 10:29.666666 11:41.88889 12:29.444445 13:-12.0 14:24.666666 15:-12.666667 16:41.88889 17:0.29696295 18:-2.103758 
-9.327425159881107E-8 5.042888026429021E-8 1.9767462463240347E-7 4.3795836789703E-8 0.0 3.567900194829484E-8 0:42.0 1:188.0 2:9.0 3:0.0 4:0.0 5:1.833333 6:1.8111092 7:1.388889 8:1.7518508 9:30.777779 10:27.555555 11:38.11111 12:26.666666 13:-9.666667 14:22.0 15:-12.333333 16:38.11111 17:0.3017472 18:-2.016443 
-9.327425159881107E-8 0.0 0.0 4.3795836789703E-8 0.0 3.567900194829484E-8 0:24.0 1:188.0 2:9.0 3:0.0 4:0.0 5:1.7222233 6:1.2185186 7:6.611112 8:38.551857 9:30.62963 10:27.333334 11:38.0 12:26.555555 13:-9.888889 14:22.11111 15:-12.222222 16:38.0 17:0.29079577 18:-2.0382204 
-0.0 5.042888026429021E-8 0.0 0.0 0.0 3.567900194829484E-8 0:229.0 1:175.0 2:9.0 3:0.0 4:0.0 5:1.166666 6:0.52222264 7:5.666666 8:26.133337 9:33.0 10:29.0 11:41.0 12:29.0 13:-12.0 14:24.0 15:-12.0 16:41.0 17:0.28683385 18:-2.091209 
-9.327425159881107E-8 0.0 0.0 4.3795836789703E-8 0.0 3.567900194829484E-8 0:27.0 1:189.0 2:9.0 3:0.0 4:0.0 5:0.9999997 6:0.31111082 7:2.6111114 8:2.5074077 9:32.77778 10:29.0 11:40.666668 12:28.666666 13:-11.333333 14:23.666666 15:-12.333333 16:40.666668 17:0.29784104 18:-2.0642734 
-0.0 2.7048671054959445E-8 0.0 0.0 0.0 0.0 0:4.0 1:189.0 2:9.0 3:0.0 4:0.0 5:2.0555565 6:3.8851852 7:11.722221 8:114.59634 9:26.444445 10:23.444445 11:33.0 12:22.88889 13:-9.0 14:19.666666 15:-10.666667 16:33.0 17:0.27147257 18:-2.1010017 
-9.327425159881107E-8 0.0 0.0 0.0 0.0 0.0 0:137.0 1:182.0 2:9.0 3:0.0 4:0.0 5:1.8333334 6:3.8555553 7:3.6111107 8:9.218522 9:34.925926 10:31.444445 11:42.88889 12:30.444445 13:-10.444445 14:23.88889 15:-13.444445 16:42.88889 17:0.28575617 18:-2.0011246 
-9.327425159881107E-8 5.042888026429021E-8 1.9767462463240347E-7 4.3795836789703E-8 0.0 3.567900194829484E-8 0:28.0 1:188.0 2:9.0 3:0.0 4:0.0 5:1.4444441 6:1.4962955 7:5.111111 8:19.007412 9:29.962963 10:26.88889 11:36.444443 12:26.555555 13:-9.222222 14:19.444445 15:-10.222222 16:36.444443 17:0.2758629 18:-2.083566 
-9.327425159881107E-8 0.0 0.0 0.0 0.0 3.567900194829484E-8 0:45.0 1:188.0 2:9.0 3:0.0 4:0.0 5:2.4444447 6:2.740741 7:3.1111116 8:7.540742 9:33.333332 10:29.666666 11:41.333336 12:29.0 13:-11.0 14:24.0 15:-13.0 16:41.333336 17:0.29986525 18:-2.0407205 
-9.327425159881107E-8 5.042888026429021E-8 0.0 4.3795836789703E-8 0.0 3.567900194829484E-8 0:37.0 1:189.0 2:9.0 3:0.0 4:0.0 5:1.3888893 6:1.4851844 7:5.722223 8:23.885176 9:30.0 10:27.11111 11:36.333336 12:26.555555 13:-8.666667 14:19.0 15:-10.333333 16:36.333336 17:0.26524833 18:-2.050282 
-9.327425159881107E-8 5.042888026429021E-8 1.9767462463240347E-7 4.3795836789703E-8 0.0 3.567900194829484E-8 0:15.0 1:189.0 2:9.0 3:0.0 4:0.0 5:1.499999 6:0.9222211 7:2.0 8:2.8888876 9:32.11111 10:28.333334 11:40.333336 12:27.666666 13:-11.333333 14:24.666666 15:-13.333333 16:40.333336 17:0.31536263 18:-2.0379822 
-9.327425159881107E-8 5.042888026429021E-8 0.0 4.3795836789703E-8 0.0 3.567900194829484E-8 0:38.0 1:189.0 2:9.0 3:0.0 4:0.0 5:1.0000006 6:0.22222213 7:6.222223 8:33.3185 9:29.074074 10:26.333334 11:35.22222 12:25.666666 13:-8.222222 14:18.444445 15:-10.222222 16:35.22222 17:0.2712077 18:-2.0491476 
-9.327425159881107E-8 5.042888026429021E-8 1.9767462463240347E-7 0.0 0.0 3.567900194829484E-8 0:205.0 1:177.0 2:9.0 3:0.0 4:0.0 5:2.8333347 6:9.633328 7:8.499999 8:17.366692 9:32.444443 10:28.444445 11:40.333336 12:28.555555 13:-12.0 14:23.666666 15:-11.666667 16:40.333336 17:0.296365 18:-2.121237 
-9.327425159881107E-8 0.0 0.0 0.0 0.0 0.0 0:77.0 1:186.0 2:9.0 3:0.0 4:0.0 5:1.9999996 6:2.6666656 7:2.333333 8:3.5555558 9:34.962963 10:31.11111 11:43.444443 12:30.333334 13:-11.555555 14:25.444445 15:-13.888889 16:43.444443 17:0.3033766 18:-2.0366416 
-9.327425159881107E-8 0.0 1.9767462463240347E-7 0.0 0.0 0.0 0:142.0 1:182.0 2:9.0 3:0.0 4:0.0 5:2.499999 6:1.0999985 7:2.277777 8:3.618518 9:34.51852 10:31.555555 11:42.22222 12:29.777779 13:-8.888889 14:23.11111 15:-14.222222 16:42.22222 17:0.29320765 18:-1.9430385 
-9.327425159881107E-8 0.0 0.0 4.3795836789703E-8 0.0 3.567900194829484E-8 0:10.0 1:190.0 2:9.0 3:0.0 4:0.0 5:2.6666672 6:6.977775 7:2.5000007 8:2.6555543 9:32.962963 10:29.333334 11:41.11111 12:28.444445 13:-10.888889 14:24.444445 15:-13.555555 16:41.11111 17:0.30570525 18:-2.020042 
-9.327425159881107E-8 5.042888026429021E-8 1.9767462463240347E-7 4.3795836789703E-8 0.0 3.567900194829484E-8 0:2.0 1:190.0 2:9.0 3:0.0 4:0.0 5:2.555555 6:1.4518529 7:2.5 8:2.9666677 9:31.666666 10:28.0 11:40.11111 12:26.88889 13:-11.0 14:25.333334 15:-14.333333 16:40.11111 17:0.32900727 18:-2.0083811 
-9.327425159881107E-8 0.0 0.0 0.0 0.0 0.0 0:137.0 1:182.0 2:9.0 3:0.0 4:0.0 5:1.8333334 6:3.8555553 7:3.6111107 8:9.218522 9:34.925926 10:31.444445 11:42.88889 12:30.444445 13:-10.444445 14:23.88889 15:-13.444445 16:42.88889 17:0.28575617 18:-2.0011246 
-9.327425159881107E-8 0.0 0.0 0.0 0.0 0.0 0:20.0 1:189.0 2:9.0 3:0.0 4:0.0 5:1.7222229 6:1.7518526 7:2.666667 8:3.822227 9:34.11111 10:30.11111 11:42.77778 12:29.444445 13:-12.0 14:26.0 15:-14.0 16:42.77778 17:0.30988368 18:-2.0442774 
-9.327425159881107E-8 5.042888026429021E-8 8.282155118355831E-8 4.3795836789703E-8 0.0 3.567900194829484E-8 0:28.0 1:188.0 2:9.0 3:0.0 4:0.0 5:1.4444441 6:1.4962955 7:5.111111 8:19.007412 9:29.962963 10:26.88889 11:36.444443 12:26.555555 13:-9.222222 14:19.444445 15:-10.222222 16:36.444443 17:0.2758629 18:-2.083566 
-9.327425159881107E-8 0.0 0.0 0.0 0.0 3.567900194829484E-8 0:114.0 1:184.0 2:9.0 3:0.0 4:0.0 5:0.7222226 6:0.32962984 7:9.388888 8:28.951855 9:31.185184 10:28.444445 11:37.11111 12:28.0 13:-8.222222 14:17.777779 15:-9.555555 16:37.11111 17:0.23234288 18:-2.1603296 
-9.327425159881107E-8 0.0 0.0 0.0 0.0 0.0 0:77.0 1:185.0 2:9.0 3:0.0 4:0.0 5:2.944445 6:7.6629586 7:6.2222214 8:32.118523 9:32.555557 10:29.222221 11:39.666668 12:28.777779 13:-10.0 14:21.333334 15:-11.333333 16:39.666668 17:0.27036038 18:-2.0852716 
-9.327425159881107E-8 5.042888026429021E-8 0.0 4.3795836789703E-8 0.0 3.567900194829484E-8 0:47.0 1:189.0 2:9.0 3:0.0 4:0.0 5:2.2777774 6:4.5518537 7:5.8888893 8:14.6074095 9:29.62963 10:26.777779 11:36.555557 12:25.555555 13:-8.555555 14:20.777779 15:-12.222222 16:36.555557 17:0.29741284 18:-1.9545742 
-9.327425159881107E-8 0.0 1.9767462463240347E-7 0.0 0.0 0.0 0:142.0 1:182.0 2:9.0 3:0.0 4:0.0 5:2.499999 6:1.0999985 7:2.277777 8:3.618518 9:34.51852 10:31.555555 11:42.22222 12:29.777779 13:-8.888889 14:23.11111 15:-14.222222 16:42.22222 17:0.29320765 18:-1.9430385 
-0.0 0.0 0.0 0.0 7.063548473567615E-9 0.0 0:86.0 1:197.0 2:9.0 3:0.11111111 4:0.11111111 5:1.611112 6:1.4516907 7:1.2777786 8:1.1038647 9:63.22222 10:56.22222 11:77.77778 12:55.666668 13:-21.0 14:43.666668 15:-22.666666 16:77.77778 17:0.28533262 18:-2.06802 
-0.0 5.042888026429021E-8 0.0 0.0 0.0 0.0 0:4.0 1:189.0 2:9.0 3:0.0 4:0.0 5:2.0555565 6:3.8851852 7:11.722221 8:114.59634 9:26.444445 10:23.444445 11:33.0 12:22.88889 13:-9.0 14:19.666666 15:-10.666667 16:33.0 17:0.27147257 18:-2.1010017 
-0.0 0.0 0.0 0.0 7.063548473567615E-9 0.0 0:219.0 1:176.0 2:9.0 3:0.0 4:0.11111111 5:2.1111119 6:1.857917 7:5.111111 8:2.8414931 9:60.296295 10:53.333332 11:75.66667 12:51.88889 13:-20.88889 14:46.11111 15:-25.222221 16:75.66667 17:0.31446242 18:-2.0306482 
-0.0 0.0 1.9767462463240347E-7 0.0 0.0 0.0 0:223.0 1:161.0 2:9.0 3:0.0 4:0.0 5:1.3888893 6:3.040736 7:8.999999 8:31.022234 9:42.037037 10:36.0 11:52.22222 12:37.88889 13:-18.11111 14:30.555555 15:-12.444445 16:52.22222 17:0.30841646 18:-2.282295 
-9.327425159881107E-8 0.0 0.0 0.0 0.0 0.0 0:77.0 1:185.0 2:9.0 3:0.0 4:0.0 5:2.944445 6:7.6629586 7:6.2222214 8:32.118523 9:32.555557 10:29.222221 11:39.666668 12:28.777779 13:-10.0 14:21.333334 15:-11.333333 16:39.666668 17:0.27036038 18:-2.0852716 
-0.0 5.042888026429021E-8 1.9767462463240347E-7 3.028039161656934E-8 0.0 3.567900194829484E-8 0:214.0 1:161.0 2:9.0 3:0.0 4:0.0 5:3.7222223 6:0.72963357 7:11.5 8:18.922234 9:40.444443 10:35.333336 11:49.666668 12:36.333336 13:-15.333333 14:27.666666 15:-12.333333 16:49.666668 17:0.29805613 18:-2.198939 
-0.0 5.042888026429021E-8 1.9767462463240347E-7 4.3795836789703E-8 0.0 0.0 0:151.0 1:163.0 2:9.0 3:0.0 4:0.0 5:2.0555556 6:2.2851863 7:18.166666 8:41.988934 9:40.0 10:34.555557 11:48.0 12:37.444443 13:-16.333334 14:24.0 15:-7.6666665 16:48.11111 17:0.2638465 18:-2.5174901 
-9.327425159881107E-8 0.0 0.0 0.0 0.0 0.0 0:137.0 1:182.0 2:9.0 3:0.0 4:0.0 5:1.8333334 6:3.8555553 7:3.6111107 8:9.218522 9:34.925926 10:31.444445 11:42.88889 12:30.444445 13:-10.444445 14:23.88889 15:-13.444445 16:42.88889 17:0.28575617 18:-2.0011246 
-0.0 0.0 0.0 0.0 7.063548473567615E-9 0.0 0:86.0 1:193.0 2:9.0 3:0.0 4:0.0 5:3.2777793 6:1.6521593 7:2.222222 8:1.8094397 9:61.407406 10:53.666668 11:76.55556 12:54.0 13:-23.222221 14:45.444443 15:-22.222221 16:76.55556 17:0.29957896 18:-2.1093748 
-0.0 -0.0 0.0 0.03271226615084585 0.0 7.37258675353448E-6 0:128.0 1:144.0 2:9.0 3:0.0 4:0.0 5:0.0 6:0.0 7:0.0 8:0.0 9:0.0 10:0.0 11:0.0 12:0.0 13:0.0 14:0.0 15:0.0 16:0.0 17:0.0 18:0.0 
-0.0 -0.0 0.0 0.0 0.0 1.385627674791056E-5 0:196.0 1:95.0 2:9.0 3:0.0 4:0.0 5:1.722222 6:1.1238165 7:1.3333335 8:1.264911 9:7.6296296 10:6.7777777 11:10.777778 12:5.3333335 13:-2.5555556 14:9.444445 15:-6.888889 16:10.777778 17:0.51256585 18:-1.7492584 
-1.6409821020346302E-7 -0.0 0.0 0.0 0.0 0.0 0:174.0 1:152.0 2:9.0 3:0.0 4:0.0 5:0.0 6:0.0 7:0.0 8:0.0 9:0.0 10:0.0 11:0.0 12:0.0 13:0.0 14:0.0 15:0.0 16:0.0 17:0.0 18:0.0 
-1.6409821020346302E-7 -0.0 9.012359657873259E-5 0.0 0.0 0.0 0:156.0 1:154.0 2:9.0 3:0.0 4:0.0 5:0.2777778 6:0.3277307 7:0.77777773 8:0.544331 9:1.7407408 10:1.0 11:3.5555556 12:0.6666667 13:-2.2222223 14:5.4444447 15:-3.2222223 16:3.5555556 17:0.8388889 18:-1.9882019 
-0.0 -0.0 0.0 0.0 0.0 1.385627674791056E-5 0:155.0 1:40.0 2:9.0 3:0.0 4:0.0 5:1.888889 6:2.072751 7:0.05555554 8:0.13608274 9:1.2592592 10:1.2222222 11:1.5555556 12:1.0 13:-0.11111111 14:0.8888889 15:-0.7777778 16:1.5555556 17:0.11666667 18:-1.5707964 
-0.0 -0.0 0.0 0.0 0.0 8.892327336758889E-6 0:160.0 1:95.0 2:9.0 3:0.0 4:0.0 5:3.2222223 6:3.544427 7:0.22222225 8:0.4036867 9:2.148148 10:2.1111112 11:2.5555556 12:1.7777778 13:-0.11111111 14:1.2222222 15:-1.1111112 16:2.5555556 17:0.10119048 18:-1.6289082 
-1.6409821020346302E-7 -0.0 0.0 0.0 0.0 0.0 0:158.0 1:154.0 2:9.0 3:0.0 4:0.0 5:0.9444444 6:1.0835471 7:0.2222222 8:0.40368667 9:0.6296296 10:0.44444445 11:1.2222222 12:0.22222222 13:-0.5555556 14:1.7777778 15:-1.2222222 16:1.2222222 17:0.2777778 18:-1.8611541 
-1.6409821020346302E-7 -0.0 0.0 0.0 0.0 0.0 0:119.0 1:153.0 2:9.0 3:0.0 4:0.0 5:5.0555553 6:5.539421 7:0.055555504 8:0.13608263 9:3.3703704 10:3.0 11:3.8888888 12:3.2222223 13:-1.1111112 14:1.5555556 15:-0.44444445 16:3.8888888 17:0.08501683 18:-2.2217164 
-1.6409821020346302E-7 -0.0 0.0 0.0 0.0 0.0 0:163.0 1:152.0 2:9.0 3:0.0 4:0.0 5:0.0 6:0.0 7:0.0 8:0.0 9:0.0 10:0.0 11:0.0 12:0.0 13:0.0 14:0.0 15:0.0 16:0.0 17:0.0 18:0.0 
-0.0 -0.0 0.0 5.507518330532555E-4 0.0 0.0 0:131.0 1:144.0 2:9.0 3:0.0 4:0.0 5:0.0 6:0.0 7:0.0 8:0.0 9:0.0 10:0.0 11:0.0 12:0.0 13:0.0 14:0.0 15:0.0 16:0.0 17:0.0 18:0.0 
-1.6409821020346302E-7 -0.0 0.0 0.0 0.0 0.0 0:170.0 1:154.0 2:9.0 3:0.0 4:0.0 5:0.11111111 6:0.17213261 7:0.055555556 8:0.13608277 9:0.074074075 10:0.0 11:0.22222222 12:0.0 13:-0.22222222 14:0.44444445 15:-0.22222222 16:0.22222222 17:0.22222222 18:-2.0943952 
-0.0 -0.0 0.0 0.009277691314781596 0.0 0.0 0:199.0 1:144.0 2:9.0 3:0.0 4:0.0 5:0.33333334 6:0.5163977 7:0.33333334 8:0.36514834 9:0.44444445 10:0.11111111 11:1.1111112 12:0.11111111 13:-1.0 14:2.0 15:-1.0 16:1.1111112 17:0.7407407 18:-2.0943952 
-1.6409821020346302E-7 -0.0 0.0 0.0 0.0 0.0 0:123.0 1:152.0 2:9.0 3:0.0 4:0.0 5:0.0 6:0.0 7:0.0 8:0.0 9:0.0 10:0.0 11:0.0 12:0.0 13:0.0 14:0.0 15:0.0 16:0.0 17:0.0 18:0.0 
-1.6409821020346302E-7 -0.0 0.0 0.0 0.0 0.0 0:161.0 1:154.0 2:9.0 3:0.0 4:0.0 5:0.0 6:0.0 7:0.0 8:0.0 9:0.0 10:0.0 11:0.0 12:0.0 13:0.0 14:0.0 15:0.0 16:0.0 17:0.0 18:0.0 
-0.0 -0.0 0.0 0.0 0.0 9.96875438570424E-6 0:160.0 1:41.0 2:9.0 3:0.0 4:0.0 5:0.8333333 6:0.8096638 7:0.22222225 8:0.17213258 9:0.7037037 10:0.5555556 11:1.2222222 12:0.33333334 13:-0.44444445 14:1.5555556 15:-1.1111112 16:1.2222222 17:0.537037 18:-1.8451205 
-0.0 -0.0 0.0 0.03271226615084585 0.0 0.0 0:133.0 1:141.0 2:9.0 3:0.0 4:0.0 5:0.11111111 6:0.17213261 7:0.11111113 8:0.1721326 9:0.074074075 10:0.0 11:0.22222222 12:0.0 13:-0.22222222 14:0.44444445 15:-0.22222222 16:0.22222222 17:0.22222222 18:-2.0943952 
-1.6409821020346302E-7 -0.0 0.0 0.0 0.0 0.0 0:173.0 1:152.0 2:9.0 3:0.0 4:0.0 5:0.0 6:0.0 7:0.0 8:0.0 9:0.0 10:0.0 11:0.0 12:0.0 13:0.0 14:0.0 15:0.0 16:0.0 17:0.0 18:0.0 
-0.0 -0.0 0.0 0.0 0.0 1.385627674791056E-5 0:173.0 1:67.0 2:9.0 3:0.0 4:0.0 5:1.1111112 6:1.2412658 7:0.22222225 8:0.34426522 9:0.7407407 10:0.7777778 11:1.1111112 12:0.33333334 13:0.11111111 14:1.1111112 15:-1.2222222 16:1.1111112 17:0.23148148 18:-1.5126845 
-0.0 -0.0 0.0 0.0 4.908501991877593E-9 0.0 0:185.0 1:84.0 2:9.0 3:0.0 4:0.0 5:0.61111134 6:0.49065334 7:0.49999937 8:0.4594679 9:23.25926 10:18.666668 11:31.333334 12:19.777779 13:-13.777778 14:24.222221 15:-10.444445 16:31.333334 17:0.40409946 18:-2.1848617 
-1.6409821020346302E-7 -5.042888026429021E-8 1.0697372007499847E-4 0.0 4.908501991877593E-9 0.0 0:160.0 1:110.0 2:9.0 3:0.0 4:0.0 5:0.833333 6:0.6912145 7:0.4444437 8:0.2721654 9:31.62963 10:27.222221 11:39.333336 12:28.333334 13:-13.222222 14:23.11111 15:-9.888889 16:39.333336 17:0.3074441 18:-2.1872416 
-0.0 -0.0 3.316888973410429E-5 0.0 4.908501991877593E-9 0.0 0:159.0 1:105.0 2:9.0 3:0.0 4:0.0 5:0.55555564 6:0.5018486 7:4.0 8:1.8257413 9:26.74074 10:22.555555 11:34.0 12:23.666666 13:-12.555555 14:21.777779 15:-9.222222 16:34.0 17:0.3374935 18:-2.192406 
-0.0 -0.0 1.0697372007499847E-4 0.0 0.0 0.0 0:227.0 1:109.0 2:9.0 3:0.0 4:0.0 5:1.1666666 6:0.98319155 7:0.3888893 8:0.38968188 9:21.851852 10:18.444445 11:28.777779 12:18.333334 13:-10.222222 14:20.777779 15:-10.555555 16:28.777779 17:0.36714104 18:-2.0827625 
-1.6409821020346302E-7 -5.042888026429021E-8 0.0 0.0 4.908501991877593E-9 0.0 0:170.0 1:113.0 2:9.0 3:0.0 4:0.0 5:2.833333 6:0.62360847 7:1.222222 8:0.68853045 9:28.333334 10:24.333334 11:34.88889 12:25.777779 13:-12.0 14:19.666666 15:-7.6666665 16:34.88889 17:0.30207062 18:-2.2362506 
-0.0 -0.0 1.0697372007499847E-4 0.0 0.0 0.0 0:244.0 1:105.0 2:9.0 3:0.0 4:0.0 5:5.9444447 6:4.9234886 7:1.4999996 8:0.80966365 9:22.703703 10:19.11111 11:29.555555 12:19.444445 13:-10.777778 14:20.555555 15:-9.777778 16:29.555555 17:0.36449948 18:-2.1255476 
-1.2965640840614386E-7 -5.042888026429021E-8 0.0 0.0 4.908501991877593E-9 0.0 0:142.0 1:112.0 2:9.0 3:0.0 4:0.0 5:1.0555557 6:0.49065286 7:0.55555534 8:0.34426492 9:28.851852 10:24.555555 11:36.22222 12:25.777779 13:-12.888889 14:22.11111 15:-9.222222 16:36.22222 17:0.32174963 18:-2.2001557 
-1.6409821020346302E-7 -5.042888026429021E-8 1.0697372007499847E-4 0.0 4.908501991877593E-9 0.0 0:159.0 1:116.0 2:9.0 3:0.11111111 4:0.0 5:0.4444437 6:0.34426528 7:2.0555553 8:1.1038655 9:29.814816 10:25.666666 11:37.11111 12:26.666666 13:-12.444445 14:21.88889 15:-9.444445 16:37.11111 17:0.31028613 18:-2.1775072 
-0.0 -5.042888026429021E-8 0.0 0.0 4.908501991877593E-9 0.0 0:143.0 1:114.0 2:9.0 3:0.0 4:0.0 5:1.5 6:0.80966365 7:0.3888887 8:0.389682 9:27.185184 10:23.0 11:34.444447 12:24.11111 13:-12.555555 14:21.777779 15:-9.222222 16:34.444447 17:0.33188802 18:-2.196423 
-0.0 -0.0 0.0 0.0 4.908501991877593E-9 0.0 0:189.0 1:107.0 2:9.0 3:0.0 4:0.0 5:2.6666667 6:0.69920635 7:0.8333333 8:0.7226496 9:27.777779 10:23.444445 11:35.11111 12:24.777779 13:-13.0 14:22.0 15:-9.0 16:35.11111 17:0.3324073 18:-2.2014954 
-1.6409821020346302E-7 -5.042888026429021E-8 0.0 0.0 4.908501991877593E-9 0.0 0:139.0 1:113.0 2:9.0 3:0.0 4:0.0 5:0.94444436 6:0.9756285 7:0.666667 8:0.42163637 9:29.333334 10:24.88889 11:37.0 12:26.11111 13:-13.333333 14:23.0 15:-9.666667 16:37.0 17:0.32738453 18:-2.1998253 
-0.0 -5.042888026429021E-8 0.0 0.0 4.908501991877593E-9 0.0 0:139.0 1:109.0 2:9.0 3:0.0 4:0.0 5:0.88888866 6:0.8344436 7:0.277778 8:0.38968176 9:29.407408 10:24.777779 11:37.11111 12:26.333334 13:-13.888889 14:23.11111 15:-9.222222 16:37.11111 17:0.33195418 18:-2.226161 
-0.0 -0.0 0.0 0.03271226615084585 0.0 0.0 0:206.0 1:133.0 2:9.0 3:0.0 4:0.0 5:0.055555556 6:0.13608277 7:0.055555556 8:0.13608277 9:0.37037036 10:0.0 11:1.1111112 12:0.0 13:-1.1111112 14:2.2222223 15:-1.1111112 16:1.1111112 17:1.0 18:-2.0943952 
-0.0 -0.0 0.0 0.03271226615084585 0.0 0.0 0:204.0 1:131.0 2:9.0 3:0.0 4:0.0 5:0.11111111 6:0.17213261 7:0.11111111 8:0.17213261 9:0.22222222 10:0.0 11:0.6666667 12:0.0 13:-0.6666667 14:1.3333334 15:-0.6666667 16:0.6666667 17:0.6666667 18:-2.0943952 
-0.0 -0.0 0.0 0.03271226615084585 0.0 0.0 0:203.0 1:133.0 2:9.0 3:0.0 4:0.0 5:0.055555556 6:0.13608277 7:0.055555556 8:0.13608277 9:0.2962963 10:0.0 11:0.8888889 12:0.0 13:-0.8888889 14:1.7777778 15:-0.8888889 16:0.8888889 17:0.8888889 18:-2.0943952 
-0.0 -5.042888026429021E-8 0.0 0.0 4.908501991877593E-9 0.0 0:142.0 1:111.0 2:9.0 3:0.0 4:0.0 5:1.1111113 6:0.45541987 7:0.55555534 8:0.34426492 9:28.74074 10:24.555555 11:35.88889 12:25.777779 13:-12.555555 14:21.444445 15:-8.888889 16:35.88889 17:0.31548372 18:-2.2026672 
-0.0 -0.0 1.0697372007499847E-4 0.0 4.908501991877593E-9 0.0 0:121.0 1:112.0 2:9.0 3:0.0 4:0.0 5:2.3888886 6:1.7690756 7:0.5000003 8:0.2788867 9:23.703703 10:19.444445 11:32.333336 12:19.333334 13:-12.777778 14:25.88889 15:-13.111111 16:32.333336 17:0.40954432 18:-2.0852482 
-0.0 -5.042888026429021E-8 1.0697372007499847E-4 0.012387023312175923 4.908501991877593E-9 0.0 0:22.0 1:114.0 2:9.0 3:0.11111111 4:0.0 5:0.94444436 6:1.1626916 7:1.1666664 8:0.40824813 9:30.481482 10:24.444445 11:40.77778 12:26.222221 13:-18.11111 14:30.88889 15:-12.777778 16:40.77778 17:0.4005362 18:-2.2071579 
-0.0 -0.0 0.0 0.0 4.908501991877593E-9 0.0 0:124.0 1:98.0 2:9.0 3:0.0 4:0.0 5:0.9999997 6:1.0110505 7:1.2222217 8:1.2938603 9:21.518518 10:16.88889 11:30.444445 12:17.222223 13:-13.888889 14:26.777779 15:-12.888889 16:30.444445 17:0.4486757 18:-2.1182358 
-0.0 -0.0 0.0 1.1092373262832902E-4 0.0 1.385627674791056E-5 0:57.0 1:89.0 2:9.0 3:0.0 4:0.0 5:1.7222222 6:1.3066783 7:6.1666665 8:4.7034264 9:17.0 10:13.0 11:24.555555 12:13.444445 13:-12.0 14:22.666666 15:-10.666667 16:24.555555 17:0.47748852 18:-2.1297464 
-0.0 -0.0 1.0697372007499847E-4 0.0 4.908501991877593E-9 0.0 0:59.0 1:116.0 2:9.0 3:0.0 4:0.0 5:3.0000007 6:2.8126693 7:0.7777777 8:0.45542037 9:21.962963 10:17.88889 11:29.555555 12:18.444445 13:-12.222222 14:22.777779 15:-10.555555 16:29.555555 17:0.39566323 18:-2.144778 
-0.0 -0.0 1.0697372007499847E-4 0.0 0.0 1.106722892971214E-5 0:58.0 1:113.0 2:9.0 3:0.0 4:0.0 5:3.4444447 6:1.2232318 7:0.7222223 8:0.38968182 9:20.851852 10:16.88889 11:28.444445 12:17.222223 13:-11.888889 14:22.777779 15:-10.888889 16:28.444445 17:0.4148072 18:-2.1256926 
-0.0 -0.0 0.0 0.029551879122156097 0.0 0.0 0:33.0 1:99.0 2:9.0 3:0.0 4:0.0 5:1.5555557 6:1.2590411 7:2.4444444 8:1.128749 9:15.481482 10:11.222222 11:23.777779 12:11.444445 13:-12.777778 14:24.88889 15:-12.111111 16:23.777779 17:0.54147977 18:-2.112503 
-0.0 -0.0 0.0 0.03271226615084585 0.0 0.0 0:38.0 1:134.0 2:9.0 3:0.0 4:0.0 5:0.16666667 6:0.18257421 7:0.33333334 8:0.2108186 9:1.037037 10:0.0 11:3.1111112 12:0.0 13:-3.1111112 14:6.2222223 15:-3.1111112 16:3.1111112 17:1.0 18:-2.0943952 
-0.0 -0.0 0.0 0.03271226615084585 0.0 0.0 0:43.0 1:141.0 2:9.0 3:0.0 4:0.0 5:0.44444442 6:0.17213267 7:0.16666667 8:0.18257418 9:0.7777778 10:0.0 11:2.3333335 12:0.0 13:-2.3333333 14:4.6666665 15:-2.3333333 16:2.3333335 17:1.0 18:-2.0943952 
-0.0 -0.0 1.0697372007499847E-4 0.0 4.908501991877593E-9 1.385627674791056E-5 0:60.0 1:116.0 2:9.0 3:0.0 4:0.0 5:0.7222226 6:0.38968164 7:0.7777774 8:0.34426582 9:23.407408 10:19.333334 11:31.444445 12:19.444445 13:-12.222222 14:24.11111 15:-11.888889 16:31.444445 17:0.39214933 18:-2.1049783 
-0.0 -0.0 0.0 0.03271226615084585 0.0 0.0 0:54.0 1:142.0 2:9.0 3:0.0 4:0.0 5:0.7222223 6:0.82775915 7:2.0 8:2.1081848 9:1.8148148 10:0.8888889 11:3.6666667 12:0.8888889 13:-2.7777777 14:5.5555553 15:-2.7777777 16:3.6666667 17:0.76944447 18:-2.0943952 
-0.0 -0.0 0.0 0.0 4.908501991877593E-9 1.385627674791056E-5 0:8.0 1:93.0 2:9.0 3:0.0 4:0.0 5:0.8333333 6:0.45946798 7:1.0555559 8:0.9289585 9:19.88889 10:15.111111 11:28.88889 12:15.666667 13:-14.333333 14:27.0 15:-12.666667 16:28.88889 17:0.48024568 18:-2.1362147 
-0.0 -0.0 0.0 0.03271226615084585 0.0 1.385627674791056E-5 0:59.0 1:135.0 2:9.0 3:0.0 4:0.0 5:0.16666667 6:0.18257421 7:0.055555556 8:0.13608277 9:0.4814815 10:0.0 11:1.4444444 12:0.0 13:-1.4444444 14:2.8888888 15:-1.4444444 16:1.4444444 17:1.0 18:-2.0943952 
-0.0 -0.0 0.0 0.0 0.0 1.385627674791056E-5 0:47.0 1:89.0 2:9.0 3:0.0 4:0.0 5:0.55555564 6:0.17213255 7:3.611111 8:3.83792 9:14.222222 10:10.222222 11:22.11111 12:10.333334 13:-12.0 14:23.666666 15:-11.666667 16:22.11111 17:0.5488248 18:-2.1073112 
-0.0 -0.0 0.0 0.0 0.0 9.33787905191947E-6 0:83.0 1:96.0 2:9.0 3:0.0 4:0.0 5:0.49999967 6:0.45946804 7:0.6666663 8:0.5163983 9:19.592592 10:15.222222 11:28.444445 12:15.111111 13:-13.111111 14:26.555555 15:-13.444445 16:28.444445 17:0.4727645 18:-2.0860834 
-0.0 -0.0 0.0 0.03271226615084585 0.0 0.0 0:42.0 1:133.0 2:9.0 3:0.0 4:0.0 5:1.1666667 6:1.9061303 7:2.7222223 8:3.1581755 9:2.7037036 10:1.2222222 11:5.0 12:1.8888888 13:-4.4444447 14:6.888889 15:-2.4444444 16:5.0 17:0.8606061 18:-2.208419 
-0.0 -0.0 1.0697372007499847E-4 0.0 0.0 1.385627674791056E-5 0:83.0 1:117.0 2:9.0 3:0.0 4:0.0 5:1.8333334 6:1.3784049 7:0.7222223 8:0.49065298 9:17.11111 10:14.555555 11:23.0 12:13.777778 13:-7.6666665 14:17.666666 15:-10.0 16:23.0 17:0.40220302 18:-2.005139 
-0.0 -5.042888026429021E-8 1.0354050549887606E-4 0.0 0.0 0.0 0:112.0 1:120.0 2:9.0 3:0.11111111 4:0.0 5:1.3333334 6:1.0327947 7:2.222222 8:1.7083671 9:21.555555 10:17.555555 11:28.666666 12:18.444445 13:-12.0 14:21.333334 15:-9.333333 16:28.666666 17:0.38675025 18:-2.1774175 
-0.0 -0.0 0.0 0.03271226615084585 0.0 1.385627674791056E-5 0:56.0 1:141.0 2:9.0 3:0.0 4:0.0 5:0.16666669 6:0.18257418 7:0.33333337 8:-1.5894573E-8 9:0.18518518 10:0.0 11:0.5555556 12:0.0 13:-0.5555556 14:1.1111112 15:-0.5555556 16:0.5555556 17:0.5555556 18:-2.0943952 
-0.0 -0.0 0.0 0.03271226615084585 0.0 1.385627674791056E-5 0:54.0 1:134.0 2:9.0 3:0.0 4:0.0 5:0.22222222 6:0.029629637 7:0.055555556 8:0.01851852 9:0.5185185 10:0.0 11:1.5555556 12:0.0 13:-1.5555556 14:3.1111112 15:-1.5555556 16:1.5555556 17:1.0 18:-2.0943952 
-0.0 -0.0 1.0697372007499847E-4 0.0 0.0 0.0 0:57.0 1:118.0 2:9.0 3:0.0 4:0.0 5:2.833334 6:5.5 7:1.2222223 8:0.87407327 9:19.407408 10:15.555555 11:26.555555 12:16.11111 13:-11.555555 14:21.444445 15:-9.888889 16:26.555555 17:0.4187123 18:-2.14718 
-0.0 -5.042888026429021E-8 1.0697372007499847E-4 0.0 4.908501991877593E-9 0.0 0:113.0 1:114.0 2:9.0 3:0.0 4:0.0 5:0.94444466 6:0.5074079 7:0.33333364 8:0.08888922 9:25.814816 10:21.0 11:34.666668 12:21.777779 13:-14.444445 14:26.555555 15:-12.111111 16:34.666668 17:0.39392713 18:-2.1527398 
-0.0 -0.0 0.0 0.03271226615084585 0.0 1.385627674791056E-5 0:51.0 1:141.0 2:9.0 3:0.0 4:0.0 5:0.5555556 6:0.11851845 7:0.22222225 8:0.074074075 9:0.7037037 10:0.33333334 11:1.7777778 12:0.0 13:-1.1111112 14:3.2222223 15:-2.1111112 16:1.7777778 17:0.8888889 18:-1.9212171 
-0.0 -0.0 0.0 0.03271226615084585 0.0 1.385627674791056E-5 0:58.0 1:140.0 2:9.0 3:0.0 4:0.0 5:0.055555556 6:0.01851852 7:0.22222225 8:0.029629627 9:0.25925925 10:0.0 11:0.7777778 12:0.0 13:-0.7777778 14:1.5555556 15:-0.7777778 16:0.7777778 17:0.7777778 18:-2.0943952 
-0.0 -0.0 0.0 0.03271226615084585 0.0 0.0 0:94.0 1:135.0 2:9.0 3:0.0 4:0.0 5:2.277778 6:1.2629623 7:0.5555555 8:0.38518512 9:2.1851852 10:0.7777778 11:4.888889 12:0.8888889 13:-4.2222223 14:8.111111 15:-3.8888888 16:4.888889 17:0.88800704 18:-2.1109743 
-0.0 -0.0 7.132665738741439E-5 0.0 0.0 1.385627674791056E-5 0:17.0 1:94.0 2:9.0 3:0.0 4:0.0 5:1.7222223 6:3.174073 7:1.0555557 8:0.9518536 9:20.037037 10:15.777778 11:28.666666 12:15.666667 13:-12.777778 14:25.88889 15:-13.111111 16:28.666666 17:0.45777184 18:-2.0842547 
-0.0 -0.0 2.8327111943762892E-5 0.0 0.0 0.0 0:96.0 1:141.0 2:9.0 3:0.0 4:0.0 5:1.5555555 6:0.7407407 7:0.44444445 8:0.11851848 9:4.962963 10:3.1111112 11:8.777778 12:3.0 13:-5.5555553 14:11.444445 15:-5.888889 16:8.777778 17:0.6652397 18:-2.0750706 
-0.0 -0.0 1.0697372007499847E-4 0.0 0.0 1.385627674791056E-5 0:14.0 1:135.0 2:9.0 3:0.0 4:0.0 5:0.27777776 6:0.062962964 7:0.27777776 8:0.06296293 9:2.8888888 10:1.6666666 11:6.0 12:1.0 13:-3.6666667 14:9.333333 15:-5.6666665 16:6.0 17:0.83227515 18:-1.958546 
-0.0 -0.0 0.0 0.03271226615084585 0.0 0.0 0:77.0 1:135.0 2:9.0 3:0.0 4:0.0 5:0.22222221 6:0.029629624 7:0.22222221 8:0.029629624 9:0.7777778 10:0.0 11:2.3333335 12:0.0 13:-2.3333333 14:4.6666665 15:-2.3333333 16:2.3333335 17:1.0 18:-2.0943952 
-0.0 -0.0 0.0 0.009097530583122545 0.0 0.0 0:243.0 1:94.0 2:9.0 3:0.0 4:0.0 5:0.6666666 6:0.31111112 7:0.22222221 8:0.029629631 9:1.1851852 10:0.22222222 11:3.2222223 12:0.11111111 13:-2.8888888 14:6.111111 15:-3.2222223 16:3.2222223 17:0.9777778 18:-2.0712416 
-0.0 -0.0 0.0 0.00839413362951809 0.0 0.0 0:207.0 1:115.0 2:9.0 3:0.0 4:0.0 5:1.0555555 6:0.3296295 7:0.16666669 8:0.033333343 9:1.2222222 10:0.44444445 11:2.8888888 12:0.33333334 13:-2.3333333 14:5.0 15:-2.6666667 16:2.8888888 17:0.93333334 18:-2.0655363 
-0.0 -0.0 0.0 0.0 4.908501991877593E-9 0.0 0:123.0 1:94.0 2:9.0 3:0.0 4:0.0 5:0.50000066 6:0.07777796 7:0.8333333 8:0.033333335 9:21.444445 10:16.88889 11:30.444445 12:17.0 13:-13.666667 14:27.0 15:-13.333333 16:30.444445 17:0.4521822 18:-2.1009657 
-0.0 -0.0 0.0 0.0 0.0 1.385627674791056E-5 0:96.0 1:94.0 2:9.0 3:0.0 4:0.0 5:0.7222226 6:0.28518537 7:0.44444466 8:0.42963016 9:20.222221 10:16.0 11:28.777779 12:15.888889 13:-12.666667 14:25.666666 15:-13.0 16:28.777779 17:0.45154575 18:-2.084893 
-0.0 -0.0 0.0 0.0 0.0 1.385627674791056E-5 0:6.0 1:95.0 2:9.0 3:0.0 4:0.0 5:0.7777777 6:0.6074076 7:0.3888893 8:0.06296301 9:20.185184 10:15.555555 11:28.777779 12:16.222223 13:-13.888889 14:25.777779 15:-11.888889 16:28.777779 17:0.45946908 18:-2.1461854 
-0.0 -0.0 4.047676653045048E-5 0.0 0.0 0.0 0:33.0 1:114.0 2:9.0 3:0.0 4:0.0 5:0.55555516 6:0.07407411 7:0.49999985 8:0.21111098 9:16.11111 10:11.777778 11:24.11111 12:12.444445 13:-13.0 14:24.0 15:-11.0 16:24.11111 17:0.51092404 18:-2.1490734 
-0.0 -0.0 0.0 0.03271226615084585 0.0 0.0 0:90.0 1:134.0 2:9.0 3:0.0 4:0.0 5:0.5555556 6:0.34074077 7:1.0555555 8:0.37407416 9:2.6666667 10:1.0 11:6.111111 12:0.8888889 13:-5.0 14:10.333333 15:-5.3333335 16:6.111111 17:0.87610227 18:-2.0712416 
-0.0 -0.0 0.0 0.03271226615084585 0.0 0.0 0:58.0 1:111.0 2:9.0 3:0.0 4:0.0 5:3.2222223 6:3.4518514 7:2.0555556 8:0.9518509 9:19.333334 10:15.555555 11:26.222221 12:16.222223 13:-11.333333 14:20.666666 15:-9.333333 16:26.222221 17:0.40922624 18:-2.1537185 
-0.0 -0.0 0.0 0.01718398016547114 0.0 0.0 0:199.0 1:116.0 2:9.0 3:0.0 4:0.0 5:0.5555555 6:0.2962963 7:0.44444442 8:0.029629644 9:1.962963 10:0.6666667 11:4.888889 12:0.33333334 13:-3.8888888 14:8.777778 15:-4.888889 16:4.888889 17:0.94074076 18:-2.018925 
-0.0 -0.0 4.9414522148957364E-5 0.0 0.0 0.0 0:211.0 1:139.0 2:9.0 3:0.0 4:0.0 5:0.33333334 6:0.0888889 7:0.27777782 8:0.06296302 9:5.2222223 10:3.2222223 11:9.555555 12:2.8888888 13:-6.0 14:13.0 15:-7.0 16:9.555555 17:0.69660497 18:-2.04457 
-0.0 -0.0 0.0 0.03271226615084585 0.0 0.0 0:195.0 1:136.0 2:9.0 3:0.0 4:0.0 5:1.1666666 6:0.52222216 7:1.1666667 8:0.47777748 9:2.4444444 10:0.6666667 11:5.7777777 12:0.8888889 13:-5.3333335 14:10.0 15:-4.6666665 16:5.7777777 17:0.9111552 18:-2.1303394 
-0.0 -0.0 0.0 0.03271226615084585 0.0 1.385627674791056E-5 0:37.0 1:130.0 2:9.0 3:0.0 4:0.0 5:0.77777773 6:0.96296304 7:1.2777777 8:0.951852 9:1.6296296 10:1.1111112 11:3.0 12:0.7777778 13:-1.5555556 14:4.111111 15:-2.5555556 16:3.0 17:0.85555553 18:-1.9598235 
-0.0 -0.0 0.0 0.03271226615084585 0.0 0.0 0:129.0 1:136.0 2:9.0 3:0.0 4:0.0 5:2.0 6:1.5555573 7:0.8333333 8:0.1222222 9:6.185185 10:3.6666667 11:10.666667 12:4.2222223 13:-7.5555553 14:13.444445 15:-5.888889 16:10.666667 17:0.6577441 18:-2.1752956 
-0.0 -0.0 0.0 0.03271226615084585 0.0 0.0 0:169.0 1:136.0 2:9.0 3:0.0 4:0.0 5:0.27777782 6:0.06296299 7:0.8333333 8:0.21111113 9:2.074074 10:0.6666667 11:4.888889 12:0.6666667 13:-4.2222223 14:8.444445 15:-4.2222223 16:4.888889 17:0.87751323 18:-2.0943952 
-0.0 -0.0 0.0 0.0 0.0 1.385627674791056E-5 0:42.0 1:135.0 2:9.0 3:0.0 4:0.0 5:0.38888893 6:0.15185186 7:0.44444445 8:0.16296294 9:2.4074075 10:1.3333334 11:5.111111 12:0.7777778 13:-3.2222223 14:8.111111 15:-4.888889 16:5.111111 17:0.84973544 18:-1.9721864 
-0.0 -0.0 0.0 0.03271226615084585 0.0 1.385627674791056E-5 0:34.0 1:131.0 2:9.0 3:0.0 4:0.0 5:0.3333333 6:0.17777775 7:0.72222215 8:0.5518518 9:0.8148148 10:0.33333334 11:1.8888888 12:0.22222222 13:-1.4444444 14:3.2222223 15:-1.7777778 16:1.8888888 17:0.9259259 18:-2.0561552 
-0.0 -0.0 0.0 0.03271226615084585 0.0 1.385627674791056E-5 0:46.0 1:131.0 2:9.0 3:0.0 4:0.0 5:0.27777776 6:0.06296298 7:1.7777777 8:1.8518522 9:1.4074074 10:0.7777778 11:2.7777777 12:0.6666667 13:-1.8888888 14:4.111111 15:-2.2222223 16:2.7777777 17:0.77037036 18:-2.0513444 
-0.0 -0.0 1.0697372007499847E-4 0.0 0.0 0.0 0:56.0 1:140.0 2:9.0 3:0.0 4:0.0 5:0.9444444 6:0.46296272 7:0.27777776 8:0.06296294 9:5.5555553 10:3.6666667 11:9.444445 12:3.5555556 13:-5.6666665 14:11.666667 15:-6.0 16:9.444445 17:0.6392537 18:-2.0722682 
-0.0 -0.0 0.0 0.03271226615084585 0.0 0.0 0:170.0 1:139.0 2:9.0 3:0.0 4:0.0 5:1.0555555 6:0.5074076 7:0.72222215 8:0.28518504 9:4.185185 10:1.8888888 11:8.555555 12:2.1111112 13:-6.888889 14:13.111111 15:-6.2222223 16:8.555555 17:0.78617525 18:-2.127586 
-0.0 -0.0 0.0 0.03271226615084585 0.0 0.0 0:53.0 1:134.0 2:9.0 3:0.0 4:0.0 5:2.1666667 6:0.3 7:0.27777767 8:0.018518496 9:6.962963 10:4.666667 11:11.222222 12:5.0 13:-6.888889 14:12.777778 15:-5.888889 16:11.222222 17:0.5872341 18:-2.1384587 
-0.0 -0.0 0.0 0.0 0.0 1.385627674791056E-5 0:9.0 1:130.0 2:9.0 3:0.0 4:0.0 5:0.055555582 6:0.018518535 7:2.611111 8:6.240745 9:1.7407408 10:1.0 11:3.2222223 12:1.0 13:-2.2222223 14:4.4444447 15:-2.2222223 16:3.2222223 17:0.5509259 18:-2.0943952 
-0.0 -0.0 0.0 0.01209945005749591 0.0 0.0 0:108.0 1:138.0 2:9.0 3:0.0 4:0.0 5:0.2777777 6:0.062962934 7:0.5 8:0.12222223 9:3.1851852 10:1.4444444 11:6.6666665 12:1.4444444 13:-5.2222223 14:10.444445 15:-5.2222223 16:6.6666665 17:0.79960316 18:-2.08783 
-0.0 -0.0 0.0 0.0 0.0 1.385627674791056E-5 0:96.0 1:135.0 2:9.0 3:0.0 4:0.0 5:0.38888893 6:0.06296293 7:0.16666664 8:0.033333324 9:1.925926 10:1.0 11:4.4444447 12:0.33333334 13:-2.7777777 14:7.5555553 15:-4.7777777 16:4.4444447 17:0.92777777 18:-1.9313321 
-0.0 -0.0 0.0 0.03271226615084585 0.0 4.111654929501116E-6 0:10.0 1:137.0 2:9.0 3:0.0 4:0.0 5:0.5555555 6:0.07407411 7:0.2777778 8:0.018518511 9:0.9259259 10:0.11111111 11:2.6666667 12:0.0 13:-2.4444444 14:5.2222223 15:-2.7777777 16:2.6666667 17:1.0 18:-2.0561552 
-0.0 -5.042888026429021E-8 0.0 0.0 4.908501991877593E-9 0.0 0:174.0 1:112.0 2:9.0 3:0.0 4:0.0 5:2.3888881 6:0.99629515 7:0.6666663 8:0.79999924 9:31.62963 10:24.222221 11:43.666668 12:27.0 13:-22.222221 14:36.11111 15:-13.888889 16:43.666668 17:0.4450395 18:-2.2447722 
-1.6409821020346302E-7 -5.042888026429021E-8 1.0697372007499847E-4 0.0 4.908501991877593E-9 0.0 0:187.0 1:135.0 2:9.0 3:0.0 4:0.0 5:3.2777777 6:2.4629648 7:0.8333337 8:0.47777787 9:26.444445 10:20.222221 11:37.0 12:22.11111 13:-18.666666 14:31.666666 15:-13.0 16:37.0 17:0.45423168 18:-2.2119856 
-0.0 -0.0 0.0 0.0023089360778293234 0.0 0.0 0:162.0 1:94.0 2:9.0 3:0.0 4:0.0 5:9.611112 6:39.262947 7:0.55555576 8:0.25185204 9:15.37037 10:10.666667 11:23.777779 12:11.666667 13:-14.111111 14:25.222221 15:-11.111111 16:23.777779 17:0.59959364 18:-2.142756 
-0.0 -5.042888026429021E-8 0.0 0.0 0.0 0.0 0:172.0 1:138.0 2:9.0 3:0.0 4:0.0 5:2.4444444 6:10.074077 7:7.8333335 8:49.633343 9:12.185185 10:8.222222 11:19.222221 12:9.111111 13:-11.888889 14:21.11111 15:-9.222222 16:19.222221 17:0.6152501 18:-2.172099 
-0.0 -0.0 0.0 0.03271226615084585 0.0 0.0 0:203.0 1:133.0 2:9.0 3:0.0 4:0.0 5:0.11111111 6:0.029629635 7:0.11111111 8:0.029629635 9:0.5925926 10:0.0 11:1.7777778 12:0.0 13:-1.7777778 14:3.5555556 15:-1.7777778 16:1.7777778 17:1.0 18:-2.0943952 
-1.6409821020346302E-7 -5.042888026429021E-8 1.0697372007499847E-4 0.0 4.908501991877593E-9 0.0 0:187.0 1:134.0 2:9.0 3:0.11111111 4:0.0 5:2.9999998 6:2.0444458 7:1.1111116 8:0.38518462 9:26.703703 10:20.333334 11:37.444443 12:22.333334 13:-19.11111 14:32.22222 15:-13.111111 16:37.444443 17:0.45775157 18:-2.21646 
-0.0 -0.0 0.0 0.0 4.908501991877593E-9 0.0 0:184.0 1:91.0 2:9.0 3:0.0 4:0.0 5:1.222222 6:0.38518563 7:0.3888893 8:0.10740757 9:24.074074 10:17.777779 11:34.88889 12:19.555555 13:-18.88889 14:32.444443 15:-13.555555 16:34.88889 17:0.48999 18:-2.2024248 
-1.6409821020346302E-7 -5.042888026429021E-8 1.0697372007499847E-4 0.0 4.908501991877593E-9 0.0 0:167.0 1:135.0 2:9.0 3:0.0 4:0.0 5:0.61111134 6:0.107407376 7:0.61111134 8:0.15185179 9:31.185184 10:24.0 11:43.11111 12:26.444445 13:-21.555555 14:35.77778 15:-14.222222 16:43.11111 17:0.44313568 18:-2.2278013 
-0.0 -5.042888026429021E-8 1.0697372007499847E-4 0.0 4.908501991877593E-9 0.0 0:166.0 1:110.0 2:9.0 3:0.0 4:0.11111111 5:0.61111134 6:0.24074027 7:2.1111114 8:2.2962978 9:29.296297 10:23.0 11:40.444443 12:24.444445 13:-18.88889 14:33.444443 15:-14.555555 16:40.444443 17:0.4318249 18:-2.182018 
-0.0 -5.042888026429021E-8 1.0697372007499847E-4 0.0 4.908501991877593E-9 0.0 0:174.0 1:115.0 2:9.0 3:0.0 4:0.0 5:2.444444 6:3.407407 7:3.6666663 8:12.266669 9:29.481482 10:23.11111 11:40.11111 12:25.222221 13:-19.11111 14:31.88889 15:-12.777778 16:40.11111 17:0.42149335 18:-2.2186553 
-0.0 -5.042888026429021E-8 1.0697372007499847E-4 0.0 4.908501991877593E-9 0.0 0:165.0 1:119.0 2:9.0 3:0.0 4:0.0 5:1.0555553 6:1.5740752 7:1.4444441 8:0.829629 9:29.481482 10:23.222221 11:40.333336 12:24.88889 13:-18.777779 14:32.555557 15:-13.777778 16:40.333336 17:0.42571348 18:-2.1877813 
-0.0 -5.042888026429021E-8 0.0 0.0 4.908501991877593E-9 0.0 0:174.0 1:113.0 2:9.0 3:0.0 4:0.0 5:2.4999993 6:1.01111 7:0.9999997 8:0.9333328 9:31.777779 10:24.444445 11:43.77778 12:27.11111 13:-22.0 14:36.0 15:-14.0 16:43.77778 17:0.4415065 18:-2.2388027 
-1.5137182322239865E-7 -5.042888026429021E-8 7.263058970048267E-5 0.0025573822556097816 4.908501991877593E-9 0.0 0:169.0 1:137.0 2:9.0 3:0.0 4:0.0 5:1.5000005 6:0.47777736 7:8.444445 8:50.07408 9:25.333334 10:18.666668 11:36.555557 12:20.777779 13:-20.0 14:33.666668 15:-13.666667 16:36.555557 17:0.50256854 18:-2.2130325 
-0.0 -0.0 0.0 0.00412912035613824 0.0 0.0 0:237.0 1:83.0 2:9.0 3:0.0 4:0.0 5:0.7222223 6:0.41851845 7:5.8333335 8:20.922216 9:9.888889 10:6.0 11:17.0 12:6.6666665 13:-11.666667 14:21.333334 15:-9.666667 16:17.0 17:0.6765811 18:-2.1502569 
-0.0 -0.0 0.0 0.0 4.908501991877593E-9 0.0 0:173.0 1:90.0 2:9.0 3:0.0 4:0.0 5:0.6666667 6:0.2666664 7:0.8333327 8:0.3444444 9:23.518518 10:17.333334 11:34.444447 12:18.777779 13:-18.555555 14:32.77778 15:-14.222222 16:34.444447 17:0.4967188 18:-2.182442 
-0.0 -0.0 0.0 0.0 4.908501991877593E-9 0.0 0:186.0 1:89.0 2:9.0 3:0.0 4:0.0 5:0.61111134 6:0.19629638 7:1.0555557 8:0.28518525 9:22.666666 10:16.444445 11:33.555557 12:18.0 13:-18.666666 14:32.666668 15:-14.0 16:33.555557 17:0.5094622 18:-2.188149 
-0.0 -0.0 3.074212809913977E-5 0.0 0.0 0.0 0:249.0 1:154.0 2:9.0 3:0.0 4:0.11111111 5:4.2222223 6:18.162964 7:1.7222223 8:3.174073 9:4.296296 10:2.5555556 11:7.6666665 12:2.6666667 13:-5.2222223 14:10.111111 15:-4.888889 16:7.6666665 17:0.8153439 18:-2.0958126 
-1.6409821020346302E-7 -0.0 0.0 0.0 0.0 0.0 0:152.0 1:152.0 2:9.0 3:0.0 4:0.0 5:0.16666669 6:0.033333343 7:2.1111112 8:4.340741 9:1.4074074 10:1.0 11:2.4444444 12:0.7777778 13:-1.2222222 14:3.1111112 15:-1.8888888 16:2.4444444 17:0.43915343 18:-2.000272 
-1.6409821020346302E-7 -0.0 0.0 0.0 0.0 0.0 0:150.0 1:152.0 2:9.0 3:0.0 4:0.0 5:0.11111108 6:0.029629618 7:2.0555556 8:3.5740747 9:1.3703704 10:1.0 11:2.3333335 12:0.7777778 13:-1.1111112 14:2.8888888 15:-1.7777778 16:2.3333335 17:0.537037 18:-2.0073514 
-1.6409821020346302E-7 -4.096542961500325E-8 1.0697372007499847E-4 0.0 0.0 0.0 0:121.0 1:154.0 2:9.0 3:0.0 4:0.0 5:0.44444442 6:0.118518524 7:2.611111 8:5.7518525 9:1.8518518 10:1.5555556 11:3.0 12:1.0 13:-0.8888889 14:3.4444444 15:-2.5555556 16:3.0 17:0.5343915 18:-1.9059265 
-1.6409821020346302E-7 -0.0 0.0 0.0 0.0 0.0 0:150.0 1:152.0 2:9.0 3:0.0 4:0.0 5:0.11111108 6:0.029629618 7:2.0555556 8:3.5740747 9:1.3703704 10:1.0 11:2.3333335 12:0.7777778 13:-1.1111112 14:2.8888888 15:-1.7777778 16:2.3333335 17:0.537037 18:-2.0073514 
-1.6409821020346302E-7 -0.0 0.0 0.0 0.0 0.0 0:173.0 1:152.0 2:9.0 3:0.0 4:0.0 5:0.22222221 6:0.029629616 7:0.8333333 8:0.16666685 9:3.5925925 10:2.6666667 11:5.7777777 12:2.3333335 13:-2.7777777 14:6.5555553 15:-3.7777777 16:5.7777777 17:0.59973544 18:-1.997796 
-0.0 -5.042888026429021E-8 1.2070276291234038E-6 5.815196597376702E-4 0.0 0.0 0:25.0 1:155.0 2:9.0 3:0.0 4:0.0 5:5.722223 6:99.75187 7:18.0 8:151.68887 9:14.333333 10:13.0 11:18.666668 12:11.333333 13:-4.0 14:13.0 15:-9.0 16:21.444445 17:0.64629805 18:-1.7974349 
-1.151908253112373E-7 -5.042888026429021E-8 7.804575704057311E-5 0.0 0.0 0.0 0:215.0 1:153.0 2:9.0 3:0.0 4:0.11111111 5:19.666666 6:8.044466 7:1.1111113 8:3.8962963 9:8.333333 10:5.3333335 11:13.444445 12:6.2222223 13:-9.0 14:15.333333 15:-6.3333335 16:13.444445 17:0.7695767 18:-2.1438897 
-0.0 -5.042888026429021E-8 1.0697372007499847E-4 0.0 0.0 0.0 0:221.0 1:154.0 2:9.0 3:0.11111111 4:0.11111111 5:4.2222223 6:2.740737 7:1.2777778 8:0.5962961 9:6.4814816 10:4.3333335 11:10.777778 12:4.3333335 13:-6.4444447 14:12.888889 15:-6.4444447 16:10.777778 17:0.6248002 18:-2.0879846 
-0.0 -5.042888026429021E-8 0.0 0.0 0.0 0.0 0:145.0 1:155.0 2:9.0 3:0.0 4:0.11111111 5:4.944444 6:35.618523 7:9.944445 8:121.396286 9:11.296296 10:7.7777777 11:17.555555 12:8.555555 13:-10.555555 14:18.777779 15:-8.222222 16:17.555555 17:0.74729437 18:-2.1405313 
-1.6409821020346302E-7 -5.042888026429021E-8 0.0 0.0 0.0 0.0 0:66.0 1:155.0 2:9.0 3:0.0 4:0.0 5:3.722222 6:21.796297 7:7.722223 8:71.574066 9:8.259259 10:5.888889 11:12.666667 12:6.2222223 13:-7.111111 14:13.222222 15:-6.111111 16:12.666667 17:0.3006237 18:-2.1476219 
-1.6409821020346302E-7 -5.042888026429021E-8 1.0697372007499847E-4 0.0031553413074934026 0.0 1.385627674791056E-5 0:46.0 1:154.0 2:9.0 3:0.11111111 4:0.0 5:3.1666667 6:8.21111 7:1.6111112 8:1.2185184 9:6.3703704 10:9.666667 11:4.666667 12:4.7777777 13:9.888889 14:-5.111111 15:-4.7777777 16:9.666667 17:0.56192696 18:-0.0049269386 
-1.6409821020346302E-7 -5.042888026429021E-8 0.0 0.0 0.0 0.0 0:86.0 1:155.0 2:9.0 3:0.0 4:0.0 5:4.277778 6:10.551853 7:5.3888893 8:60.240738 9:8.740741 10:6.6666665 11:12.888889 12:6.6666665 13:-6.2222223 14:12.444445 15:-6.2222223 16:12.888889 17:0.3923854 18:-2.079296 
-0.0 -9.463450649286971E-9 0.0 6.51955413520496E-4 0.0 0.0 0:208.0 1:154.0 2:9.0 3:0.0 4:0.11111111 5:11.666667 6:125.8667 7:0.94444424 8:0.68518424 9:8.703704 10:5.888889 11:13.888889 12:6.3333335 13:-8.444445 14:15.555555 15:-7.111111 16:13.888889 17:0.77151674 18:-2.0669158 
-1.6409821020346302E-7 -0.0 1.0697372007499847E-4 0.0 0.0 0.0 0:43.0 1:152.0 2:9.0 3:0.0 4:0.0 5:1.9444445 6:1.7074082 7:1.2222222 8:0.8296299 9:1.5185186 10:1.0 11:2.8888888 12:0.6666667 13:-1.5555556 14:4.111111 15:-2.5555556 16:2.8888888 17:0.64867723 18:-1.9332389 
-1.6409821020346302E-7 -0.0 4.283876815837369E-5 0.03271226615084585 0.0 1.385627674791056E-5 0:6.0 1:154.0 2:9.0 3:0.0 4:0.0 5:0.11111113 6:0.029629631 7:0.11111111 8:0.029629635 9:0.074074075 10:0.0 11:0.22222222 12:0.0 13:-0.22222222 14:0.44444445 15:-0.22222222 16:0.22222222 17:0.22222222 18:-2.0943952 
-0.0 -5.042888026429021E-8 0.0 0.0 0.0 0.0 0:152.0 1:155.0 2:9.0 3:0.0 4:0.0 5:0.5 6:0.61111104 7:10.777778 8:131.80739 9:7.296296 10:5.3333335 11:11.0 12:5.5555553 13:-5.888889 14:11.111111 15:-5.2222223 16:11.0 17:0.5 18:-2.115567 
-1.6409821020346302E-7 -0.0 0.0 0.0 0.0 0.0 0:79.0 1:154.0 2:9.0 3:0.0 4:0.0 5:1.1111112 6:1.5851849 7:0.16666669 8:0.07777777 9:0.7407407 10:0.44444445 11:1.5555556 12:0.22222222 13:-0.8888889 14:2.4444444 15:-1.5555556 16:1.5555556 17:0.2888889 18:-1.9196393 
-9.60755736706092E-8 -0.0 0.0 0.0 0.0 0.0 0:166.0 1:154.0 2:9.0 3:0.0 4:0.0 5:0.11111113 6:0.029629637 7:0.44444445 8:0.074074075 9:0.7037037 10:0.22222222 11:1.8888888 12:0.0 13:-1.4444444 14:3.5555556 15:-2.1111112 16:1.8888888 17:1.0 18:-2.0175102 
-0.0 -0.0 0.0 0.00458017006557707 0.0 1.385627674791056E-5 0:57.0 1:89.0 2:9.0 3:0.0 4:0.0 5:1.7222222 6:1.3066783 7:6.1666665 8:4.7034264 9:17.0 10:13.0 11:24.555555 12:13.444445 13:-12.0 14:22.666666 15:-10.666667 16:24.555555 17:0.47748852 18:-2.1297464 
-0.0 -0.0 0.0 0.011325271440134165 0.0 0.0 0:243.0 1:94.0 2:9.0 3:0.0 4:0.0 5:0.6666666 6:0.31111112 7:0.22222221 8:0.029629631 9:1.1851852 10:0.22222222 11:3.2222223 12:0.11111111 13:-2.8888888 14:6.111111 15:-3.2222223 16:3.2222223 17:0.9777778 18:-2.0712416 
-0.0 -0.0 0.0 0.0 0.0 1.385627674791056E-5 0:196.0 1:95.0 2:9.0 3:0.0 4:0.0 5:1.722222 6:1.1238165 7:1.3333335 8:1.264911 9:7.6296296 10:6.7777777 11:10.777778 12:5.3333335 13:-2.5555556 14:9.444445 15:-6.888889 16:10.777778 17:0.51256585 18:-1.7492584 
-1.6409821020346302E-7 -0.0 1.0697372007499847E-4 0.0 0.0 0.0 0:43.0 1:152.0 2:9.0 3:0.0 4:0.0 5:1.9444445 6:1.7074082 7:1.2222222 8:0.8296299 9:1.5185186 10:1.0 11:2.8888888 12:0.6666667 13:-1.5555556 14:4.111111 15:-2.5555556 16:2.8888888 17:0.64867723 18:-1.9332389 
-0.0 -0.0 0.0 0.0 0.0 1.385627674791056E-5 0:96.0 1:94.0 2:9.0 3:0.0 4:0.0 5:0.7222226 6:0.28518537 7:0.44444466 8:0.42963016 9:20.222221 10:16.0 11:28.777779 12:15.888889 13:-12.666667 14:25.666666 15:-13.0 16:28.777779 17:0.45154575 18:-2.084893 
-0.0 -5.042888026429021E-8 0.0 0.0 0.0 0.0 0:152.0 1:155.0 2:9.0 3:0.0 4:0.0 5:0.5 6:0.61111104 7:10.777778 8:131.80739 9:7.296296 10:5.3333335 11:11.0 12:5.5555553 13:-5.888889 14:11.111111 15:-5.2222223 16:11.0 17:0.5 18:-2.115567 
-1.6409821020346302E-7 -0.0 0.0 0.0 0.0 0.0 0:123.0 1:152.0 2:9.0 3:0.0 4:0.0 5:0.0 6:0.0 7:0.0 8:0.0 9:0.0 10:0.0 11:0.0 12:0.0 13:0.0 14:0.0 15:0.0 16:0.0 17:0.0 18:0.0 
-0.0 -0.0 1.0697372007499847E-4 0.0 0.0 6.030100162296393E-6 0:58.0 1:113.0 2:9.0 3:0.0 4:0.0 5:3.4444447 6:1.2232318 7:0.7222223 8:0.38968182 9:20.851852 10:16.88889 11:28.444445 12:17.222223 13:-11.888889 14:22.777779 15:-10.888889 16:28.444445 17:0.4148072 18:-2.1256926 
-0.0 -0.0 0.0 0.0 0.0 1.250085219012617E-5 0:160.0 1:41.0 2:9.0 3:0.0 4:0.0 5:0.8333333 6:0.8096638 7:0.22222225 8:0.17213258 9:0.7037037 10:0.5555556 11:1.2222222 12:0.33333334 13:-0.44444445 14:1.5555556 15:-1.1111112 16:1.2222222 17:0.537037 18:-1.8451205 
-1.6409821020346302E-7 -5.042888026429021E-8 1.0697372007499847E-4 0.0 4.908501991877593E-9 0.0 0:160.0 1:110.0 2:9.0 3:0.0 4:0.0 5:0.833333 6:0.6912145 7:0.4444437 8:0.2721654 9:31.62963 10:27.222221 11:39.333336 12:28.333334 13:-13.222222 14:23.11111 15:-9.888889 16:39.333336 17:0.3074441 18:-2.1872416 
-0.0 -5.042888026429021E-8 0.0 0.0 4.908501991877593E-9 0.0 0:142.0 1:111.0 2:9.0 3:0.0 4:0.0 5:1.1111113 6:0.45541987 7:0.55555534 8:0.34426492 9:28.74074 10:24.555555 11:35.88889 12:25.777779 13:-12.555555 14:21.444445 15:-8.888889 16:35.88889 17:0.31548372 18:-2.2026672 
-0.0 -0.0 0.0 0.0029060042769375478 0.0 0.0 0:207.0 1:115.0 2:9.0 3:0.0 4:0.0 5:1.0555555 6:0.3296295 7:0.16666669 8:0.033333343 9:1.2222222 10:0.44444445 11:2.8888888 12:0.33333334 13:-2.3333333 14:5.0 15:-2.6666667 16:2.8888888 17:0.93333334 18:-2.0655363 
-0.0 -0.0 -0.0 6.472227731582377E-6 0.0 0.0 0:63.0 1:19.0 2:9.0 3:0.0 4:0.0 5:2.4444447 6:1.1863403 7:1.4444447 8:0.8861062 9:45.185184 10:38.0 11:58.77778 12:38.77778 13:-21.555555 14:40.77778 15:-19.222221 16:58.77778 17:0.35522667 18:-2.1336765 
-1.8986323337931306E-7 -1.9767462463240347E-7 -7.181736688146046E-6 0.0 0.0 0.0 0:170.0 1:159.0 2:9.0 3:0.11111111 4:0.0 5:2.2777777 6:1.420746 7:1.611111 8:1.1816499 9:20.518518 10:20.333334 11:22.333334 12:18.88889 13:-0.5555556 14:5.4444447 15:-4.888889 16:22.333334 17:0.15127982 18:-1.5966792 
-0.0 -0.0 -0.0 0.0 1.3028622636490463E-8 0.0 0:24.0 1:15.0 2:9.0 3:0.0 4:0.0 5:0.8333346 6:0.6912141 7:1.1111107 8:0.54432976 9:70.07407 10:61.0 11:87.44444 12:61.77778 13:-27.222221 14:52.11111 15:-24.88889 16:87.44444 17:0.30227023 18:-2.1249814 
-0.0 -0.0 -1.0697372007499847E-4 0.0 0.0 7.143836532276127E-7 0:152.0 1:98.0 2:9.0 3:0.0 4:0.0 5:7.0000014 6:3.8873014 7:1.0555559 8:0.7722023 9:28.777779 10:24.88889 11:37.11111 12:24.333334 13:-11.666667 14:25.0 15:-13.333333 16:37.11111 17:0.34639803 18:-2.0429404 
-0.0 -0.0 -0.0 0.0 1.3028622636490463E-8 0.0 0:27.0 1:57.0 2:9.0 3:0.11111111 4:0.0 5:0.7222226 6:0.32772803 7:0.7222226 8:0.3896791 9:70.37037 10:60.0 11:90.111115 12:61.0 13:-31.11111 14:59.22222 15:-28.11111 16:90.111115 17:0.33538663 18:-2.128801 
-0.0 -0.0 -0.0 6.472227731582377E-6 0.0 3.5713799632067803E-6 0:52.0 1:33.0 2:9.0 3:0.0 4:0.0 5:13.888889 6:13.024195 7:0.277778 8:0.2509246 9:35.814816 10:31.333334 11:45.555557 12:30.555555 13:-13.444445 14:29.222221 15:-15.777778 16:45.555557 17:0.33727008 18:-2.0304284 
-0.0 -0.0 -0.0 0.0 1.3028622636490463E-8 0.0 0:118.0 1:111.0 2:9.0 3:0.0 4:0.0 5:1.2222227 6:1.0470412 7:0.55555534 8:0.27216536 9:62.25926 10:56.444443 11:75.333336 12:55.0 13:-17.444445 14:39.22222 15:-21.777779 16:75.333336 17:0.2692176 18:-2.014126 
-0.0 -1.9767462463240347E-7 -0.0 0.0 1.3028622636490463E-8 0.0 0:114.0 1:145.0 2:9.0 3:0.11111111 4:0.0 5:2.166666 6:1.3123348 7:0.99999934 8:0.6992059 9:61.11111 10:52.444443 11:76.77778 12:54.11111 13:-26.0 14:47.0 15:-21.0 16:76.77778 17:0.31713998 18:-2.1661513 
-0.0 -0.0 -0.0 5.902936365373917E-6 0.0 3.5713799632067803E-6 0:58.0 1:48.0 2:9.0 3:0.0 4:0.0 5:2.277778 6:0.250925 7:0.27777734 8:0.25092447 9:40.851852 10:35.444447 11:52.444443 12:34.666668 13:-16.222221 14:34.77778 15:-18.555555 16:52.444443 17:0.33911672 18:-2.0487316 
-0.0 -0.0 -0.0 0.0 1.3028622636490463E-8 0.0 0:114.0 1:129.0 2:9.0 3:0.11111111 4:0.0 5:2.055556 6:1.1434174 7:0.77777606 8:0.88610685 9:62.407406 10:54.22222 11:78.0 12:55.0 13:-24.555555 14:46.77778 15:-22.222221 16:78.0 17:0.30597952 18:-2.1269891 
-1.8986323337931306E-7 -0.0 -1.0697372007499847E-4 0.0 0.0 3.5713799632067803E-6 0:54.0 1:133.0 2:9.0 3:0.0 4:0.0 5:4.3888893 6:1.705111 7:1.2777773 8:1.2186816 9:21.444445 10:19.88889 11:25.777779 12:18.666668 13:-4.6666665 14:13.0 15:-8.333333 16:25.777779 17:0.27027062 18:-1.9038104 
-0.0 -1.9767462463240347E-7 -0.0 0.0 0.0 0.0 0:87.0 1:146.0 2:9.0 3:0.0 4:0.0 5:0.944444 6:0.6116159 7:5.111111 8:4.712474 9:43.148148 10:36.88889 11:55.88889 12:36.666668 13:-18.777779 14:38.22222 15:-19.444445 16:55.88889 17:0.34745374 18:-2.0818424 
-0.0 -0.0 -8.684052804308251E-5 0.0 0.0 3.5713799632067803E-6 0:54.0 1:126.0 2:9.0 3:0.11111111 4:0.0 5:2.7777774 6:2.6970487 7:3.3888886 8:2.2746582 9:23.296297 10:21.0 11:28.88889 12:20.0 13:-6.888889 14:16.777779 15:-9.888889 16:28.88889 17:0.3057855 18:-1.9687403 
-0.0 -0.0 -0.0 0.0 1.3028622636490463E-8 0.0 0:38.0 1:94.0 2:9.0 3:0.11111111 4:0.0 5:1.3888906 6:1.0417213 7:0.88888806 8:0.7793629 9:68.111115 10:61.11111 11:82.66667 12:60.555557 13:-21.0 14:43.666668 15:-22.666666 16:82.66667 17:0.26725835 18:-2.0685365 
-0.0 -0.0 -0.0 0.0 1.3028622636490463E-8 0.0 0:112.0 1:38.0 2:9.0 3:0.0 4:0.0 5:11.055554 6:11.074329 7:1.111112 8:1.0680542 9:64.62963 10:58.22222 11:78.44444 12:57.22222 13:-19.222221 14:41.444443 15:-22.222221 16:78.44444 17:0.27165923 18:-2.0388238 
-0.0 -0.0 -1.0697372007499847E-4 6.472227731582377E-6 0.0 3.5713799632067803E-6 0:53.0 1:42.0 2:9.0 3:0.0 4:0.0 5:3.2777774 6:0.71232545 7:0.611111 8:0.534027 9:28.25926 10:24.444445 11:36.22222 12:24.11111 13:-11.444445 14:23.88889 15:-12.444445 16:36.22222 17:0.33789337 18:-2.0610058 
-0.0 -0.0 -0.0 0.0 1.3028622636490463E-8 0.0 0:39.0 1:17.0 2:9.0 3:0.0 4:0.0 5:1.1111107 6:1.0886621 7:0.88889056 8:0.8073737 9:71.18519 10:63.333332 11:87.333336 12:62.88889 13:-23.555555 14:48.444443 15:-24.88889 16:87.333336 17:0.2848739 18:-2.0751612 
-0.0 -0.0 -0.0 0.0 1.3028622636490463E-8 0.0 0:116.0 1:125.0 2:9.0 3:0.0 4:0.0 5:2.8333333 6:0.7226492 7:2.0555546 8:0.5741333 9:60.925926 10:52.555557 11:76.44444 12:53.77778 13:-25.11111 14:46.555557 15:-21.444445 16:76.44444 17:0.3172057 18:-2.1450453 
-0.0 -0.0 -0.0 0.0 1.3028622636490463E-8 0.0 0:32.0 1:88.0 2:9.0 3:0.0 4:0.0 5:0.83333206 6:0.34960276 7:1.111112 8:0.72008145 9:67.25926 10:57.88889 11:85.0 12:58.88889 13:-28.11111 14:53.22222 15:-25.11111 16:85.0 17:0.32012162 18:-2.1320271 
-0.0 -0.0 -0.0 0.0 1.3028622636490463E-8 0.0 0:118.0 1:21.0 2:9.0 3:0.0 4:0.0 5:4.8333344 6:4.5740814 7:1.277778 8:1.0628413 9:65.888885 10:59.333332 11:79.22222 12:59.11111 13:-19.666666 14:40.0 15:-20.333334 16:79.22222 17:0.2570597 18:-2.072158 
-0.0 -0.0 -0.0 0.0 0.0 9.495281398886019E-7 0:158.0 1:76.0 2:9.0 3:0.0 4:0.0 5:0.833333 6:0.65828085 7:3.277778 8:3.065339 9:34.851852 10:31.88889 11:42.0 12:30.666666 13:-8.888889 14:21.444445 15:-12.555555 16:42.0 17:0.2703099 18:-1.9814991 
-1.8986323337931306E-7 -0.0 -0.0 0.0 0.0 0.0 0:55.0 1:145.0 2:9.0 3:0.0 4:0.0 5:5.0555553 6:2.9770727 7:1.0 8:0.4216377 9:26.777779 10:24.222221 11:33.333336 12:22.777779 13:-7.6666665 14:19.666666 15:-12.0 16:33.333336 17:0.31533822 18:-1.934686 
-0.0 -0.0 -1.0697372007499847E-4 0.0 0.0 0.0 0:144.0 1:35.0 2:9.0 3:0.0 4:0.0 5:2.3333328 6:2.0330596 7:2.055556 8:1.7309813 9:37.592594 10:32.333336 11:47.444443 12:33.0 13:-15.777778 14:29.555555 15:-13.777778 16:47.444443 17:0.3197136 18:-2.138762 
-0.0 -0.0 -0.0 0.0 1.3028622636490463E-8 0.0 0:40.0 1:17.0 2:9.0 3:0.0 4:0.0 5:1.2777761 6:0.95258045 7:1.4444453 8:1.1088861 9:70.51852 10:62.444443 11:86.55556 12:62.555557 13:-24.222221 14:48.11111 15:-23.88889 16:86.55556 17:0.28623843 18:-2.098521 
-1.8986323337931306E-7 -1.9767462463240347E-7 -0.0 0.0 0.0 0.0 0:102.0 1:158.0 2:9.0 3:0.22222222 4:0.0 5:2.2777774 6:2.1230664 7:1.8333334 8:1.0488074 9:39.333332 10:35.555557 11:47.444443 12:35.0 13:-11.333333 14:24.333334 15:-13.0 16:47.444443 17:0.26415184 18:-2.049172 
-0.0 -0.0 -0.0 0.0 1.3028622636490463E-8 0.0 0:23.0 1:25.0 2:9.0 3:0.0 4:0.0 5:1.1111094 6:0.7503052 7:0.6111107 8:0.64692986 9:70.44444 10:60.666668 11:89.0 12:61.666668 13:-29.333334 14:55.666668 15:-26.333334 16:89.0 17:0.3181906 18:-2.1304197 
-0.0 -1.9767462463240347E-7 -0.0 0.0 0.0 0.0 0:83.0 1:143.0 2:9.0 3:0.0 4:0.0 5:1.2777767 6:1.1038657 7:1.2222214 8:0.54433095 9:50.37037 10:43.0 11:64.77778 12:43.333332 13:-22.11111 14:43.22222 15:-21.11111 16:64.77778 17:0.3412286 18:-2.1089952 
-0.0 -1.4695099833441924E-7 -0.0 0.0 0.0 0.0 0:48.0 1:139.0 2:9.0 3:0.0 4:0.0 5:2.4444447 6:1.6821502 7:1.833334 8:1.048809 9:48.22222 10:42.555557 11:60.444443 12:41.666668 13:-17.0 14:36.666668 15:-19.666666 16:60.444443 17:0.3108182 18:-2.0442379 
-0.0 -0.0 -0.0 6.472227731582377E-6 0.0 0.0 0:51.0 1:64.0 2:9.0 3:0.0 4:0.0 5:17.5 6:1.206455 7:0.6666673 8:0.6992055 9:40.0 10:35.22222 11:50.11111 12:34.666668 13:-14.333333 14:30.333334 15:-16.0 16:50.11111 17:0.31010145 18:-2.030269 
-0.0 -0.0 -1.0697372007499847E-4 6.472227731582377E-6 0.0 3.5713799632067803E-6 0:52.0 1:89.0 2:9.0 3:0.0 4:0.0 5:5.2222223 6:2.721655 7:0.7222226 8:0.49065316 9:28.925926 10:25.222221 11:36.88889 12:24.666666 13:-11.111111 14:23.88889 15:-12.777778 16:36.88889 17:0.33112764 18:-2.0484614 
-0.0 -0.0 -0.0 0.0 1.3028622636490463E-8 0.0 0:112.0 1:90.0 2:9.0 3:0.0 4:0.0 5:7.38889 6:6.9455557 7:1.2777773 8:0.87981415 9:65.18519 10:57.666668 11:79.77778 12:58.11111 13:-22.555555 14:43.77778 15:-21.222221 16:79.77778 17:0.27834544 18:-2.108813 
-0.0 -0.0 -1.0697372007499847E-4 0.0 0.0 0.0 0:247.0 1:115.0 2:9.0 3:0.0 4:0.0 5:3.555556 6:1.8094409 7:1.3888897 8:1.3066785 9:28.851852 10:24.88889 11:36.77778 12:24.88889 13:-11.888889 14:23.777779 15:-11.888889 16:36.77778 17:0.33166277 18:-2.094392 
-0.0 -0.0 -0.0 0.0 1.3028622636490463E-8 0.0 0:113.0 1:34.0 2:9.0 3:0.0 4:0.0 5:1.9999987 6:1.1352938 7:0.8333308 8:0.83665943 9:72.888885 10:65.0 11:89.111115 12:64.55556 13:-23.666666 14:48.666668 15:-25.0 16:89.111115 17:0.27917594 18:-2.0781536 
-0.0 -0.0 -0.0 0.0 1.3028622636490463E-8 0.0 0:29.0 1:78.0 2:9.0 3:0.0 4:0.0 5:0.6666654 6:0.6992061 7:2.6111107 8:2.322991 9:69.74074 10:59.666668 11:88.44444 12:61.11111 13:-30.222221 14:56.11111 15:-25.88889 16:88.44444 17:0.32548746 18:-2.145541 
-0.0 -0.0 -0.0 0.0 0.0 3.5713799632067803E-6 0:153.0 1:78.0 2:9.0 3:0.0 4:0.0 5:9.388889 6:5.6702604 7:2.9444444 8:3.517681 9:30.296297 10:27.11111 11:37.444443 12:26.333334 13:-9.555555 14:21.444445 15:-11.888889 16:37.444443 17:0.30020806 18:-2.0177794 
-0.0 -0.0 -0.0 0.0 1.3028622636490463E-8 0.0 0:86.0 1:20.0 2:9.0 3:0.0 4:0.0 5:0.94444656 6:1.0201677 7:1.9444441 8:1.0628412 9:65.18519 10:56.444443 11:81.66667 12:57.444443 13:-26.222221 14:49.444443 15:-23.222221 16:81.66667 17:0.30955637 18:-2.1330314 
-0.0 -1.9767462463240347E-7 -0.0 0.0 0.0 0.0 0:39.0 1:138.0 2:9.0 3:0.0 4:0.0 5:1.1111107 6:0.50184846 7:2.3888893 8:1.638653 9:54.62963 10:49.11111 11:66.77778 12:48.0 13:-16.555555 14:36.444443 15:-19.88889 16:66.77778 17:0.28091076 18:-2.0296564 
-0.0 -0.0 -0.0 0.0 1.3028622636490463E-8 0.0 0:34.0 1:13.0 2:9.0 3:0.0 4:0.0 5:0.22222011 6:0.17213097 7:1.5555534 8:0.54433 9:70.37037 10:60.666668 11:88.111115 12:62.333332 13:-29.11111 14:53.22222 15:-24.11111 16:88.111115 17:0.3114367 18:-2.1549888 
-0.0 -0.0 -0.0 0.0 1.3028622636490463E-8 0.0 0:40.0 1:35.0 2:9.0 3:0.0 4:0.0 5:0.7222226 6:0.25092337 7:1.0555547 8:0.6469281 9:69.44444 10:61.77778 11:85.333336 12:61.22222 13:-23.0 14:47.666668 15:-24.666666 16:85.333336 17:0.2874884 18:-2.0742002 
-0.0 -0.0 -0.0 8.418395910273783E-7 0.0 0.0 0:13.0 1:15.0 2:9.0 3:0.11111111 4:0.0 5:1.2222227 6:0.8861077 7:1.2222227 8:1.0256 9:68.96296 10:59.333332 11:86.888885 12:60.666668 13:-28.88889 14:53.77778 15:-24.88889 16:86.888885 17:0.3169049 18:-2.145323 
-0.0 -0.0 -6.744598990453709E-5 6.472227731582377E-6 0.0 3.5713799632067803E-6 0:57.0 1:42.0 2:9.0 3:0.0 4:0.0 5:2.333334 6:0.8692256 7:0.99999875 8:0.69920623 9:37.444443 10:32.77778 11:47.77778 12:31.777779 13:-14.0 14:31.0 15:-17.0 16:47.77778 17:0.3346618 18:-2.029552 
-0.0 -0.0 -0.0 0.0 0.0 3.5713799632067803E-6 0:156.0 1:49.0 2:9.0 3:0.0 4:0.0 5:1.0555547 6:0.57413435 7:1.2222208 8:0.54433155 9:38.037037 10:35.666668 11:44.11111 12:34.333336 13:-7.111111 14:18.222221 15:-11.111111 16:44.11111 17:0.22118697 18:-1.949745 
-0.0 -1.9767462463240347E-7 -0.0 0.0 0.0 0.0 0:7.0 1:154.0 2:9.0 3:0.0 4:0.11111111 5:3.0555546 6:3.8321257 7:3.8333328 8:2.178176 9:50.703705 10:44.555557 11:64.0 12:43.555557 13:-18.444445 14:39.88889 15:-21.444445 16:64.0 17:0.3213451 18:-2.033077 
-0.0 -0.0 -1.0697372007499847E-4 0.0 0.0 3.5713799632067803E-6 0:152.0 1:83.0 2:9.0 3:0.0 4:0.0 5:4.444444 6:1.3277657 7:0.94444436 8:0.6804135 9:26.518518 10:23.333334 11:33.22222 12:23.0 13:-9.555555 14:20.11111 15:-10.555555 16:33.22222 17:0.30741498 18:-2.0632424 
-0.0 -0.0 -6.101559691221367E-5 0.0 0.0 3.5713799632067803E-6 0:157.0 1:20.0 2:9.0 3:0.0 4:0.0 5:1.3333334 6:0.7601168 7:4.944444 8:4.479171 9:35.48148 10:32.0 11:42.77778 12:31.666666 13:-10.444445 14:21.88889 15:-11.444445 16:42.77778 17:0.26195785 18:-2.045203 
-0.0 -0.0 -0.0 0.0 1.3028622636490463E-8 0.0 0:90.0 1:36.0 2:9.0 3:0.0 4:0.0 5:0.94444275 6:0.32773143 7:1.1111094 8:1.2232299 9:66.37037 10:56.555557 11:84.77778 12:57.77778 13:-29.444445 14:55.22222 15:-25.777779 16:84.77778 17:0.33281505 18:-2.1385806 
-0.0 -1.9767462463240347E-7 -0.0 0.0 0.0 0.0 0:104.0 1:147.0 2:9.0 3:0.0 4:0.11111111 5:3.1111114 6:2.1875062 7:4.6666665 8:2.5991445 9:49.77778 10:43.77778 11:62.444443 12:43.11111 13:-18.0 14:38.0 15:-20.0 16:62.444443 17:0.30910617 18:-2.0563772 
-1.8986323337931306E-7 -1.9767462463240347E-7 -0.0 0.0 0.0 0.0 0:162.0 1:159.0 2:9.0 3:0.0 4:0.0 5:2.1666667 6:0.9603238 7:2.2222223 8:1.4555128 9:26.11111 10:25.222221 11:29.555555 12:23.555555 13:-2.6666667 14:10.333333 15:-7.6666665 16:29.555555 17:0.20284556 18:-1.8025542 
-1.8986323337931306E-7 -1.9767462463240347E-7 -0.0 0.0 0.0 0.0 0:239.0 1:137.0 2:9.0 3:0.0 4:0.0 5:1.7777773 6:1.360828 7:3.4444447 8:1.0886629 9:40.851852 10:39.88889 11:45.333332 12:37.333336 13:-2.8888888 14:13.444445 15:-10.555555 16:45.333332 17:0.1760659 18:-1.7579898 
-1.8986323337931306E-7 -0.0 -1.0697372007499847E-4 0.0 0.0 0.0 0:142.0 1:140.0 2:9.0 3:0.0 4:0.0 5:4.2222223 6:1.2938595 7:1.5 8:0.7226494 9:26.444445 10:23.444445 11:32.333336 12:23.555555 13:-9.0 14:17.666666 15:-8.666667 16:32.333336 17:0.2850997 18:-2.1004875 
-1.1730738237974936E-7 -0.0 -0.0 0.0 0.0 0.0 0:237.0 1:137.0 2:9.0 3:0.0 4:0.0 5:8.944446 6:8.654905 7:2.6111104 8:1.5551589 9:36.925926 10:34.88889 11:42.333336 12:33.555557 13:-6.111111 14:16.222221 15:-10.111111 16:42.333336 17:0.2144562 18:-1.9409745 
-0.0 -0.0 -0.0 0.0 0.0 1.1860887558330297E-6 0:179.0 1:69.0 2:9.0 3:0.0 4:0.0 5:0.72222203 6:0.4906537 7:0.944444 8:0.7428667 9:40.666668 10:40.88889 11:44.555557 12:36.555557 13:0.6666667 14:11.666667 15:-12.333333 16:44.555557 17:0.17869009 18:-1.5187606 
-1.8986323337931306E-7 -0.0 -0.0 0.0 0.0 0.0 0:128.0 1:140.0 2:9.0 3:0.0 4:0.0 5:7.8333335 6:7.032464 7:0.6666667 8:0.29814258 9:27.666666 10:24.88889 11:33.555557 12:24.555555 13:-8.333333 14:17.666666 15:-9.333333 16:33.555557 17:0.26620623 18:-2.0538902 
-0.0 -0.0 -1.0697372007499847E-4 6.472227731582377E-6 0.0 3.5713799632067803E-6 0:132.0 1:84.0 2:9.0 3:0.0 4:0.0 5:3.0 6:1.2292727 7:0.88888913 8:0.45541987 9:8.888889 10:7.3333335 11:11.777778 12:7.5555553 13:-4.6666665 14:8.666667 15:-4.0 16:11.777778 17:0.38048342 18:-2.1369402 
-0.0 -0.0 -0.0 0.0 0.0 3.5713799632067803E-6 0:177.0 1:76.0 2:9.0 3:0.0 4:0.0 5:1.3888893 6:1.3567389 7:15.0 8:11.481388 9:29.814816 10:28.666666 11:33.444447 12:27.333334 13:-3.4444444 14:10.888889 15:-7.4444447 16:33.444447 17:0.20066153 18:-1.9036244 
-0.0 -0.0 -0.0 0.0 1.3028622636490463E-8 0.0 0:79.0 1:104.0 2:9.0 3:0.11111111 4:0.0 5:0.9444453 6:0.3740738 7:1.5 8:1.0111135 9:65.296295 10:59.77778 11:78.0 12:58.11111 13:-16.555555 14:38.11111 15:-21.555555 16:78.0 17:0.25469732 18:-2.0078323 
-0.0 -0.0 -0.0 0.0 1.3028622636490463E-8 0.0 0:133.0 1:125.0 2:9.0 3:0.0 4:0.0 5:1.4444433 6:2.8296287 7:2.1111114 8:1.3185211 9:66.25926 10:61.11111 11:79.111115 12:58.555557 13:-15.444445 14:38.555557 15:-23.11111 16:79.111115 17:0.2598418 18:-1.9632003 
-0.0 -6.79467138238886E-8 -0.0 7.204984678373003E-7 0.0 0.0 0:120.0 1:124.0 2:9.0 3:0.0 4:0.0 5:8.999999 6:112.57778 7:11.166668 8:184.5222 9:53.77778 10:49.0 11:64.44444 12:47.88889 13:-14.333333 14:32.0 15:-17.666666 16:64.44444 17:0.26124597 18:-2.0173788 
-0.0 -1.9767462463240347E-7 -0.0 0.0 1.3028622636490463E-8 0.0 0:155.0 1:138.0 2:9.0 3:0.0 4:0.0 5:2.0000012 6:0.66666055 7:1.0555534 8:0.41852024 9:69.48148 10:63.88889 11:82.55556 12:62.0 13:-16.777779 14:39.22222 15:-22.444445 16:82.55556 17:0.24899773 18:-1.9990451 
-0.0 -0.0 -0.0 0.0 1.3028622636490463E-8 0.0 0:183.0 1:105.0 2:9.0 3:0.0 4:0.0 5:2.1111095 6:1.1407399 7:0.77777606 8:0.65185165 9:65.55556 10:60.0 11:78.77778 12:57.88889 13:-16.666666 14:39.666668 15:-23.0 16:78.77778 17:0.26498562 18:-1.9894751 
-0.0 -8.494105406851557E-8 -0.0 0.0 0.0 0.0 0:122.0 1:129.0 2:9.0 3:0.0 4:0.0 5:2.2777786 6:0.86296284 7:19.833334 8:11.944499 9:51.0 10:46.88889 11:60.666668 12:45.444443 13:-12.333333 14:29.0 15:-16.666666 16:60.666668 17:0.24809188 18:-1.9972415 
-0.0 -0.0 -0.0 0.0 1.3028622636490463E-8 0.0 0:164.0 1:83.0 2:9.0 3:0.11111111 4:0.0 5:2.5 6:6.077768 7:1.5555559 8:0.78518397 9:66.25926 10:60.22222 11:79.66667 12:58.88889 13:-18.11111 14:40.22222 15:-22.11111 16:79.66667 17:0.26032928 18:-2.0277708 
-0.0 -1.9767462463240347E-7 -0.0 0.0 0.0 0.0 0:97.0 1:123.0 2:9.0 3:0.0 4:0.0 5:1.5555553 6:1.0962937 7:13.222221 8:108.74074 9:52.814816 10:48.0 11:64.111115 12:46.333332 13:-14.444445 14:33.88889 15:-19.444445 16:64.111115 17:0.2805935 18:-1.9941053 
-0.0 -0.0 -0.0 7.223723117318038E-8 0.0 0.0 0:249.0 1:87.0 2:9.0 3:0.0 4:0.0 5:14.388889 6:327.26297 7:13.388889 8:62.018505 9:31.703703 10:28.222221 11:39.444443 12:27.444445 13:-10.444445 14:23.222221 15:-12.777778 16:39.444443 17:0.31248218 18:-2.0133824 
-0.0 -1.1531941935243109E-7 -0.0 0.0 0.0 0.0 0:198.0 1:127.0 2:9.0 3:0.0 4:0.0 5:2.4444444 6:4.385187 7:8.555555 8:59.54075 9:40.74074 10:38.0 11:48.22222 12:36.0 13:-8.222222 14:22.444445 15:-14.222222 16:48.22222 17:0.24899939 18:-1.9083478 
-0.0 -7.525560390415359E-8 -0.0 0.0 0.0 0.0 0:209.0 1:122.0 2:9.0 3:0.0 4:0.0 5:0.8333327 6:0.07777824 7:11.444444 8:90.829605 9:39.22222 10:35.77778 11:47.555557 12:34.333336 13:-10.333333 14:25.0 15:-14.666667 16:47.555557 17:0.28241062 18:-1.9850266 
-0.0 -0.0 -1.9762461630437775E-5 0.0 0.0 0.0 0:198.0 1:122.0 2:9.0 3:0.0 4:0.0 5:1.5 6:0.8777781 7:11.444446 8:103.762955 9:36.185184 10:32.666668 11:44.0 12:31.88889 13:-10.555555 14:23.444445 15:-12.888889 16:44.0 17:0.29184964 18:-2.035377 
-0.0 -0.0 -0.0 0.0 1.3028622636490463E-8 0.0 0:165.0 1:96.0 2:9.0 3:0.0 4:0.0 5:2.38889 6:1.5740778 7:1.722222 8:1.2185229 9:67.03704 10:61.0 11:80.22222 12:59.88889 13:-18.11111 14:39.555557 15:-21.444445 16:80.22222 17:0.25459513 18:-2.0363362 
-0.0 -0.0 -0.0 0.0 1.3028622636490463E-8 0.0 0:99.0 1:103.0 2:9.0 3:0.0 4:0.0 5:1.0 6:0.40000102 7:0.8333359 8:0.43333372 9:64.44444 10:58.333332 11:78.111115 12:56.88889 13:-18.333334 14:41.0 15:-22.666666 16:78.111115 17:0.271568 18:-2.022581 
-0.0 -1.9767462463240347E-7 -0.0 0.0 1.3028622636490463E-8 0.0 0:155.0 1:135.0 2:9.0 3:0.0 4:0.0 5:2.3888867 6:3.2629583 7:0.83333206 8:0.122224174 9:69.92593 10:63.666668 11:83.888885 12:62.22222 13:-18.777779 14:41.88889 15:-23.11111 16:83.888885 17:0.25830337 18:-2.0249448 
-0.0 -1.9767462463240347E-7 -0.0 0.0 1.3028622636490463E-8 0.0 0:144.0 1:139.0 2:9.0 3:0.0 4:0.0 5:5.5000005 6:3.9444458 7:1.3888893 8:0.5962944 9:64.666664 10:57.88889 11:78.77778 12:57.333332 13:-20.333334 14:42.333332 15:-22.0 16:78.77778 17:0.27568987 18:-2.065471 
-0.0 -0.0 -0.0 0.0 1.3028622636490463E-8 0.0 0:135.0 1:104.0 2:9.0 3:0.0 4:0.0 5:0.94444466 6:0.10740852 7:1.9999994 8:0.7111114 9:63.62963 10:58.22222 11:76.55556 12:56.11111 13:-16.222221 14:38.77778 15:-22.555555 16:76.55556 17:0.26721877 18:-1.986567 
-0.0 -0.0 -0.0 0.0 1.3028622636490463E-8 0.0 0:146.0 1:125.0 2:9.0 3:0.11111111 4:0.0 5:0.99999744 6:0.44444707 7:2.1666667 8:1.9444479 9:69.333336 10:63.22222 11:83.111115 12:61.666668 13:-18.333334 14:41.333332 15:-23.0 16:83.111115 17:0.2575994 18:-2.0195448 
-0.0 -0.0 -0.0 0.0 1.3028622636490463E-8 0.0 0:120.0 1:102.0 2:9.0 3:0.0 4:0.0 5:0.77777797 6:0.16296387 7:0.6666667 8:0.177779 9:63.48148 10:56.77778 11:77.111115 12:56.555557 13:-20.11111 14:40.88889 15:-20.777779 16:77.111115 17:0.26937962 18:-2.0830433 
-0.0 -0.0 -9.342307779919354E-5 6.472227731582377E-6 0.0 0.0 0:96.0 1:123.0 2:9.0 3:0.0 4:0.0 5:1.2777777 6:0.1518523 7:1.8333334 8:2.0777776 9:21.62963 10:14.777778 11:34.22222 12:15.888889 13:-20.555555 14:37.77778 15:-17.222221 16:34.22222 17:0.5595462 18:-2.149759 
-7.255585099956389E-8 -0.0 -1.0697372007499847E-4 6.472227731582377E-6 0.0 3.5713799632067803E-6 0:109.0 1:130.0 2:9.0 3:0.0 4:0.0 5:1.111111 6:0.7407405 7:9.777778 8:21.762964 9:13.037037 10:9.888889 11:18.88889 12:10.333334 13:-9.444445 14:17.555555 15:-8.111111 16:18.88889 17:0.5481241 18:-2.1373706 
-0.0 -1.9767462463240347E-7 -9.222548932238231E-5 0.0 0.0 0.0 0:183.0 1:153.0 2:9.0 3:0.0 4:0.0 5:5.0000005 6:12.266663 7:3.0000002 8:6.8888917 9:28.0 10:21.333334 11:38.77778 12:23.88889 13:-20.0 14:32.333332 15:-12.333333 16:38.77778 17:0.44774532 18:-2.2427413 
-1.8986323337931306E-7 -1.9767462463240347E-7 -0.0 0.0 0.0 0.0 0:66.0 1:160.0 2:9.0 3:0.0 4:0.0 5:3.0000007 6:4.044447 7:2.777778 8:0.4296295 9:22.851852 10:18.222221 11:31.555555 12:18.777779 13:-13.888889 14:26.11111 15:-12.222222 16:31.555555 17:0.4260139 18:-2.1387258 
-1.8986323337931306E-7 -1.9767462463240347E-7 -0.0 0.0 0.0 0.0 0:99.0 1:156.0 2:9.0 3:0.0 4:0.0 5:2.0555556 6:2.6407394 7:2.5 8:5.1888895 9:21.0 10:16.777779 11:29.222221 12:17.0 13:-12.666667 14:24.666666 15:-12.0 16:29.222221 17:0.4313206 18:-2.1093647 
